{"learner":{"attributes":{"scikit_learn":"{\"_estimator_type\": \"regressor\"}"},"feature_names":["Data Value","N","Standard Error","Lower CI Bound","Upper CI Bound","Category"],"feature_types":["float","int","float","float","float","float"],"gradient_booster":{"model":{"gbtree_model_param":{"num_parallel_tree":"1","num_trees":"100"},"iteration_indptr":[0,1,2,3,4,5,6,7,8,9,10,11,12,13,14,15,16,17,18,19,20,21,22,23,24,25,26,27,28,29,30,31,32,33,34,35,36,37,38,39,40,41,42,43,44,45,46,47,48,49,50,51,52,53,54,55,56,57,58,59,60,61,62,63,64,65,66,67,68,69,70,71,72,73,74,75,76,77,78,79,80,81,82,83,84,85,86,87,88,89,90,91,92,93,94,95,96,97,98,99,100],"tree_info":[0,0,0,0,0,0,0,0,0,0,0,0,0,0,0,0,0,0,0,0,0,0,0,0,0,0,0,0,0,0,0,0,0,0,0,0,0,0,0,0,0,0,0,0,0,0,0,0,0,0,0,0,0,0,0,0,0,0,0,0,0,0,0,0,0,0,0,0,0,0,0,0,0,0,0,0,0,0,0,0,0,0,0,0,0,0,0,0,0,0,0,0,0,0,0,0,0,0,0,0],"trees":[{"base_weights":[-2.3881631E-8,7.533756E-5,-1.1015433E-1,-1.408533E-4,3.9658222E-2,-1.0091245E-2,-1.950195E-1,2.0757336E-3,-2.7054572E-3,1.4023997E-1,2.2383519E-2,-1.0848858E-1,1.1605912E-1,-2.29183E-1,1.5468277E-1,-7.1332236E-3,3.782246E-3,-2.7579581E-3,2.1874106E-2,2.5728775E-2,2.0453742E-1,3.7811235E-2,-6.57816E-2,-1.3500899E-1,1.18138315E-2,2.449213E-2,7.4348324E-3,-2.3805115E-1,-8.1737194E-4,1.8852597E-2,4.349819E-3,-3.469967E-2,-5.4123797E-3,2.926693E-3,1.7567946E-2,-1.8201356E-3,-1.3756402E-2,-6.1258115E-2,1.856131E-1,1.6522738E-1,3.0847674E-2,7.133412E-3,5.822212E-2,2.0460738E-2,-1.8039471E-1,-3.882915E-2,-1.9026774E-1,-1.454595E-1,9.7684465E-2,-1.3021387E-1,-2.531079E-2,-3.8500929E-3,7.8111584E-3,8.2281884E-5,-1.4430647E-3,2.2582347E-4,2.5286684E-3,2.3738972E-3,-5.3432807E-3,2.869043E-4,-3.2615464E-4,-1.4486008E-3,9.996997E-3,6.823157E-3,-1.5516586E-2,1.1127276E-2,2.7242277E-2,1.1538996E-2,2.176896E-2,2.5954673E-3,-3.4262685E-3,8.407128E-3,1.2480259E-3,-7.437399E-3,1.5019647E-2,-2.1381594E-2,1.0254509E-2,7.854107E-3,-1.8237974E-2,-2.2130782E-2,-6.4765005E-3,-3.1704188E-3,-1.8648507E-2,2.0528138E-4,2.4010554E-2,-2.2534056E-2,8.317441E-4],"categories":[],"categories_nodes":[],"categories_segments":[],"categories_sizes":[],"default_left":[0,0,0,0,0,0,1,0,0,0,0,0,0,0,0,0,0,0,0,0,0,1,1,0,0,0,0,0,0,0,0,0,1,1,1,0,0,0,0,1,0,0,0,0,0,0,0,0,0,0,0,0,0,0,0,0,0,0,0,0,0,0,0,0,0,0,0,0,0,0,0,0,0,0,0,0,0,0,0,0,0,0,0,0,0,0,0],"id":0,"left_children":[1,3,5,7,9,11,13,15,17,19,21,23,25,27,29,31,33,35,-1,37,39,41,43,45,-1,-1,47,49,-1,-1,-1,51,53,55,57,59,61,63,65,67,-1,69,71,73,75,77,79,81,83,85,-1,-1,-1,-1,-1,-1,-1,-1,-1,-1,-1,-1,-1,-1,-1,-1,-1,-1,-1,-1,-1,-1,-1,-1,-1,-1,-1,-1,-1,-1,-1,-1,-1,-1,-1,-1,-1],"loss_changes":[6.071136E-1,6.2541884E-1,4.226256E-1,4.132127E-1,6.8665624E-1,3.1049973E-1,3.5802114E-1,6.1276263E-1,3.9239407E-1,4.2177868E-1,4.6495062E-1,1.0009305E-1,1.521522E-1,4.705274E-2,3.08799E-3,2.8899145E-1,3.8792518E-1,3.4749404E-1,0E0,3.173428E-1,1.00208044E-1,1.811715E-1,5.0780064E-1,6.170419E-2,0E0,0E0,1.1079974E-1,6.0101748E-3,0E0,0E0,0E0,1.5652648E-1,3.2271975E-1,4.6290278E-1,8.4338814E-1,2.0985031E-1,2.2108406E-1,1.9298846E-1,2.1314442E-2,5.0703704E-2,0E0,9.20471E-2,2.0468646E-1,3.8027424E-1,2.2996205E-1,1.1541567E-1,1.6831905E-2,8.088268E-3,6.760692E-2,6.776439E-2,0E0,0E0,0E0,0E0,0E0,0E0,0E0,0E0,0E0,0E0,0E0,0E0,0E0,0E0,0E0,0E0,0E0,0E0,0E0,0E0,0E0,0E0,0E0,0E0,0E0,0E0,0E0,0E0,0E0,0E0,0E0,0E0,0E0,0E0,0E0,0E0,0E0],"parents":[2147483647,0,0,1,1,2,2,3,3,4,4,5,5,6,6,7,7,8,8,9,9,10,10,11,11,12,12,13,13,14,14,15,15,16,16,17,17,19,19,20,20,21,21,22,22,23,23,26,26,27,27,31,31,32,32,33,33,34,34,35,35,36,36,37,37,38,38,39,39,41,41,42,42,43,43,44,44,45,45,46,46,47,47,48,48,49,49],"right_children":[2,4,6,8,10,12,14,16,18,20,22,24,26,28,30,32,34,36,-1,38,40,42,44,46,-1,-1,48,50,-1,-1,-1,52,54,56,58,60,62,64,66,68,-1,70,72,74,76,78,80,82,84,86,-1,-1,-1,-1,-1,-1,-1,-1,-1,-1,-1,-1,-1,-1,-1,-1,-1,-1,-1,-1,-1,-1,-1,-1,-1,-1,-1,-1,-1,-1,-1,-1,-1,-1,-1,-1,-1],"split_conditions":[5.154E-1,5.12E0,2E0,3E0,4.4292E0,8E0,9E0,5E-1,4.978E-1,6E0,5.38E0,1.88E0,2.4533E0,4.13E0,2.13E0,2E0,3.134E-1,2.5E-1,2.1874106E-2,2.673E-1,3.134E-1,2E0,4E0,4E0,1.18138315E-2,2.449213E-2,1.62E0,5.261E-1,-8.1737194E-4,1.8852597E-2,4.349819E-3,1.64E-2,5E0,1.1E1,9E0,8E0,4.5E0,3E0,4.88E0,8E0,3.0847674E-2,5.12E0,5E0,5.62E0,2.266E-1,5.489E-1,2.7336E0,1.5E0,5.345E-1,2.13E0,-2.531079E-2,-3.8500929E-3,7.8111584E-3,8.2281884E-5,-1.4430647E-3,2.2582347E-4,2.5286684E-3,2.3738972E-3,-5.3432807E-3,2.869043E-4,-3.2615464E-4,-1.4486008E-3,9.996997E-3,6.823157E-3,-1.5516586E-2,1.1127276E-2,2.7242277E-2,1.1538996E-2,2.176896E-2,2.5954673E-3,-3.4262685E-3,8.407128E-3,1.2480259E-3,-7.437399E-3,1.5019647E-2,-2.1381594E-2,1.0254509E-2,7.854107E-3,-1.8237974E-2,-2.2130782E-2,-6.4765005E-3,-3.1704188E-3,-1.8648507E-2,2.0528138E-4,2.4010554E-2,-2.2534056E-2,8.317441E-4],"split_indices":[2,4,0,4,3,5,5,0,2,5,0,0,4,0,0,5,2,2,0,2,2,5,5,5,0,0,0,2,0,0,0,3,5,5,5,5,0,5,0,5,0,0,0,0,2,2,4,0,2,0,0,0,0,0,0,0,0,0,0,0,0,0,0,0,0,0,0,0,0,0,0,0,0,0,0,0,0,0,0,0,0,0,0,0,0,0,0],"split_type":[0,0,0,0,0,0,0,0,0,0,0,0,0,0,0,0,0,0,0,0,0,0,0,0,0,0,0,0,0,0,0,0,0,0,0,0,0,0,0,0,0,0,0,0,0,0,0,0,0,0,0,0,0,0,0,0,0,0,0,0,0,0,0,0,0,0,0,0,0,0,0,0,0,0,0,0,0,0,0,0,0,0,0,0,0,0,0],"sum_hessian":[7.3132E4,7.3083E4,4.9E1,7.2687E4,3.96E2,2.3E1,2.6E1,3.8989E4,3.3698E4,5.7E1,3.39E2,1.3E1,1E1,2.4E1,2E0,6.095E3,3.2894E4,3.3691E4,7E0,2.1E1,3.6E1,2.89E2,5E1,1.2E1,1E0,4E0,6E0,2.3E1,1E0,1E0,1E0,3.57E2,5.738E3,3.0973E4,1.921E3,3.1045E4,2.646E3,1.4E1,7E0,2.8E1,8E0,1.16E2,1.73E2,2.9E1,2.1E1,5E0,7E0,2E0,4E0,4E0,1.9E1,3.46E2,1.1E1,3.393E3,2.345E3,3.0075E4,8.98E2,1.768E3,1.53E2,7.299E3,2.3746E4,2.63E3,1.6E1,6E0,8E0,5E0,2E0,1.6E1,1.2E1,8E1,3.6E1,1.1E2,6.3E1,1.7E1,1.2E1,1.9E1,2E0,3E0,2E0,5E0,2E0,1E0,1E0,3E0,1E0,2E0,2E0],"tree_param":{"num_deleted":"0","num_feature":"6","num_nodes":"87","size_leaf_vector":"1"}},{"base_weights":[1.4385669E-6,6.960577E-5,-9.9637225E-2,-1.263197E-4,3.594205E-2,-9.094131E-3,-1.7642972E-1,1.8682104E-3,-2.4340025E-3,1.2783375E-1,2.0160697E-2,-9.958096E-2,1.0689766E-1,-2.0817792E-1,1.4694864E-1,-7.923147E-3,3.1858836E-3,-2.4819025E-3,1.996012E-1,8.60083E-2,2.8099728E-1,3.406054E-2,-5.9272945E-2,-1.24507405E-1,1.122314E-2,2.253276E-2,7.0337695E-3,-2.1620493E-1,-7.76504E-4,1.7909968E-2,4.1323276E-3,-5.251127E-3,-3.845769E-2,2.1721392E-3,1.3435043E-2,-1.6381154E-3,-1.2377531E-2,8.663947E-3,2.228152E-2,-1.5965914E-2,1.4985318E-1,3.171395E-1,1.2942795E-1,6.412954E-3,5.2455414E-2,2.220737E-1,-8.794232E-2,-4.5293696E-2,-1.8593433E-1,-1.3818653E-1,9.275919E-2,-1.8252794E-1,-2.8681451E-2,-1.4966956E-3,1.854079E-4,-3.5631394E-3,-4.917476E-3,1.5851283E-4,2.1516287E-3,1.4857118E-3,-1.3225384E-2,-2.0945941E-4,1.1139701E-3,-1.3037956E-3,9.056102E-3,-5.571188E-3,1.0646517E-2,1.0452974E-2,1.9759515E-2,3.509518E-2,1.3253095E-2,1.6460687E-2,1.1945606E-3,2.3391233E-3,-3.0929032E-3,4.1519715E-3,1.4492482E-2,2.4362257E-2,6.7939134E-3,-1.6286103E-2,-2.1167162E-3,3.8620455E-3,-1.7005272E-2,-2.2403967E-2,-6.0447347E-3,-3.0118972E-3,-1.7716082E-2,1.898855E-4,2.2810027E-2,-2.3578132E-2,-1.4666736E-2],"categories":[],"categories_nodes":[],"categories_segments":[],"categories_sizes":[],"default_left":[0,0,0,0,0,0,1,0,0,0,0,0,0,0,0,1,0,0,0,0,1,1,0,0,0,0,0,0,0,0,0,0,0,1,1,0,0,0,0,0,1,0,0,0,0,0,0,0,0,0,0,0,0,0,0,0,0,0,0,0,0,0,0,0,0,0,0,0,0,0,0,0,0,0,0,0,0,0,0,0,0,0,0,0,0,0,0,0,0,0,0],"id":1,"left_children":[1,3,5,7,9,11,13,15,17,19,21,23,25,27,29,31,33,35,37,39,41,43,45,47,-1,-1,49,51,-1,-1,-1,53,55,57,59,61,63,-1,-1,65,67,69,71,73,75,77,79,81,83,85,87,89,-1,-1,-1,-1,-1,-1,-1,-1,-1,-1,-1,-1,-1,-1,-1,-1,-1,-1,-1,-1,-1,-1,-1,-1,-1,-1,-1,-1,-1,-1,-1,-1,-1,-1,-1,-1,-1,-1,-1],"loss_changes":[4.967328E-1,5.136627E-1,3.46047E-1,3.345687E-1,5.731425E-1,2.625425E-1,3.0779195E-1,5.030667E-1,3.2661712E-1,3.4738755E-1,3.774181E-1,8.788985E-2,1.2851065E-1,3.8539052E-2,2.786912E-3,3.7714684E-1,3.5703453E-1,2.8130126E-1,1.6737878E-3,3.0838755E-1,2.4689853E-2,1.4715001E-1,4.3089718E-1,5.4834455E-2,0E0,0E0,9.9961564E-2,4.7183037E-3,0E0,0E0,0E0,2.93694E-1,9.5155835E-3,3.5508925E-1,6.427733E-1,1.8110842E-1,1.8113223E-1,0E0,0E0,9.838807E-2,4.2096496E-2,9.666443E-3,1.4565282E-2,7.490177E-2,1.6993463E-1,5.5626035E-5,2.3167995E-1,7.985084E-2,1.9929484E-2,7.299669E-3,6.105255E-2,1.7027855E-3,0E0,0E0,0E0,0E0,0E0,0E0,0E0,0E0,0E0,0E0,0E0,0E0,0E0,0E0,0E0,0E0,0E0,0E0,0E0,0E0,0E0,0E0,0E0,0E0,0E0,0E0,0E0,0E0,0E0,0E0,0E0,0E0,0E0,0E0,0E0,0E0,0E0,0E0,0E0],"parents":[2147483647,0,0,1,1,2,2,3,3,4,4,5,5,6,6,7,7,8,8,9,9,10,10,11,11,12,12,13,13,14,14,15,15,16,16,17,17,18,18,19,19,20,20,21,21,22,22,23,23,26,26,27,27,31,31,32,32,33,33,34,34,35,35,36,36,39,39,40,40,41,41,42,42,43,43,44,44,45,45,46,46,47,47,48,48,49,49,50,50,51,51],"right_children":[2,4,6,8,10,12,14,16,18,20,22,24,26,28,30,32,34,36,38,40,42,44,46,48,-1,-1,50,52,-1,-1,-1,54,56,58,60,62,64,-1,-1,66,68,70,72,74,76,78,80,82,84,86,88,90,-1,-1,-1,-1,-1,-1,-1,-1,-1,-1,-1,-1,-1,-1,-1,-1,-1,-1,-1,-1,-1,-1,-1,-1,-1,-1,-1,-1,-1,-1,-1,-1,-1,-1,-1,-1,-1,-1,-1],"split_conditions":[5.154E-1,5.12E0,2E0,3E0,4.4292E0,8E0,9E0,1.2E-1,4.978E-1,3.239E-1,5.38E0,1.88E0,2.4533E0,4.13E0,2.13E0,1E1,2.673E-1,2.5E-1,5E-1,6E0,5E0,2E0,4E0,2.5691E0,1.122314E-2,2.253276E-2,1.62E0,5.669E-1,-7.76504E-4,1.7909968E-2,4.1323276E-3,7E0,1.2E1,1.1E1,1.2E1,4.13E0,4.5E0,8.663947E-3,2.228152E-2,2.673E-1,8E0,4.629E-1,4.62E0,5.12E0,2.266E-1,1.89E-1,2.400001E1,5.489E-1,2.7336E0,1.5E0,5.345E-1,2.13E0,-2.8681451E-2,-1.4966956E-3,1.854079E-4,-3.5631394E-3,-4.917476E-3,1.5851283E-4,2.1516287E-3,1.4857118E-3,-1.3225384E-2,-2.0945941E-4,1.1139701E-3,-1.3037956E-3,9.056102E-3,-5.571188E-3,1.0646517E-2,1.0452974E-2,1.9759515E-2,3.509518E-2,1.3253095E-2,1.6460687E-2,1.1945606E-3,2.3391233E-3,-3.0929032E-3,4.1519715E-3,1.4492482E-2,2.4362257E-2,6.7939134E-3,-1.6286103E-2,-2.1167162E-3,3.8620455E-3,-1.7005272E-2,-2.2403967E-2,-6.0447347E-3,-3.0118972E-3,-1.7716082E-2,1.898855E-4,2.2810027E-2,-2.3578132E-2,-1.4666736E-2],"split_indices":[2,4,0,4,3,5,5,0,2,2,0,0,4,0,0,5,2,2,2,5,5,5,5,4,0,0,0,2,0,0,0,5,5,5,5,0,0,0,0,2,5,2,0,0,2,2,5,2,4,0,2,0,0,0,0,0,0,0,0,0,0,0,0,0,0,0,0,0,0,0,0,0,0,0,0,0,0,0,0,0,0,0,0,0,0,0,0,0,0,0,0],"split_type":[0,0,0,0,0,0,0,0,0,0,0,0,0,0,0,0,0,0,0,0,0,0,0,0,0,0,0,0,0,0,0,0,0,0,0,0,0,0,0,0,0,0,0,0,0,0,0,0,0,0,0,0,0,0,0,0,0,0,0,0,0,0,0,0,0,0,0,0,0,0,0,0,0,0,0,0,0,0,0,0,0,0,0,0,0,0,0,0,0,0,0],"sum_hessian":[7.3132E4,7.3083E4,4.9E1,7.2687E4,3.96E2,2.3E1,2.6E1,3.8989E4,3.3698E4,5.7E1,3.39E2,1.3E1,1E1,2.4E1,2E0,4.624E3,3.4365E4,3.3691E4,7E0,4.6E1,1.1E1,2.89E2,5E1,1.2E1,1E0,4E0,6E0,2.3E1,1E0,1E0,1E0,4.253E3,3.71E2,3.1273E4,3.092E3,3.1045E4,2.646E3,2E0,5E0,1.8E1,2.8E1,8E0,3E0,1.16E2,1.73E2,4E0,4.6E1,6E0,6E0,2E0,4E0,1.8E1,5E0,1.796E3,2.457E3,2.97E2,7.4E1,3.0353E4,9.2E2,3.063E3,2.9E1,2.9975E4,1.07E3,2.63E3,1.6E1,1.4E1,4E0,1.6E1,1.2E1,6E0,2E0,2E0,1E0,8E1,3.6E1,1.56E2,1.7E1,3E0,1E0,2.1E1,2.5E1,4E0,2E0,4E0,2E0,1E0,1E0,3E0,1E0,5E0,1.3E1],"tree_param":{"num_deleted":"0","num_feature":"6","num_nodes":"91","size_leaf_vector":"1"}},{"base_weights":[2.6836076E-6,6.473592E-5,-9.0698E-2,-1.1340065E-4,3.268017E-2,-8.416559E-3,-1.6047786E-1,-1.5549705E-3,2.653825E-3,1.1679677E-1,1.8234747E-2,-9.179206E-2,9.846286E-2,-1.9006824E-1,1.3960122E-1,-6.808976E-4,-7.622242E-3,7.1586105E-3,-1.0040272E-3,7.815827E-2,2.5839785E-1,3.0716168E-2,-5.3095583E-2,-1.1525604E-1,1.0661984E-2,2.0730136E-2,6.654944E-3,-1.9737302E-1,-7.37679E-4,1.7014472E-2,3.925711E-3,-1.2681961E-2,-1.4239056E-4,-8.274559E-3,8.539013E-2,2.8733947E-4,1.6225487E-2,2.07519E-3,-1.05821835E-2,-1.9665646E-4,1.4711846E-1,2.907976E-1,1.2089896E-1,2.8096858E-2,2.1097263E-2,2.0609757E-2,-7.953963E-2,-3.2039687E-2,-1.632613E-1,-1.312772E-1,8.8083245E-2,-1.06235E-1,-2.102889E-2,-3.4020592E-3,-7.6868985E-4,1.2913315E-3,-7.693181E-5,-4.7066907E-4,-1.7002216E-3,1.2398731E-2,-5.0519607E-3,-3.265199E-4,2.2105756E-3,1.6791538E-3,-4.0281294E-3,1.5556699E-4,5.901241E-3,-1.1049095E-3,1.461444E-2,-1.4388176E-2,2.0339151E-3,2.071616E-2,1.1225938E-2,3.2087024E-2,1.2369555E-2,1.5363306E-2,1.1348337E-3,4.4118566E-3,4.7766292E-4,-2.1803405E-2,-4.55399E-3,-1.2651369E-2,1.0460556E-2,-1.8947298E-2,-5.6417515E-3,-2.861303E-3,-1.6830279E-2,1.7564297E-4,2.1669526E-2,-1.945991E-2,1.7540783E-3],"categories":[],"categories_nodes":[],"categories_segments":[],"categories_sizes":[],"default_left":[0,0,0,0,0,0,1,1,0,0,0,0,0,0,0,0,0,0,0,0,1,1,0,0,0,0,0,0,0,0,0,0,0,0,0,0,1,1,0,0,0,0,0,0,0,0,0,0,0,0,0,0,0,0,0,0,0,0,0,0,0,0,0,0,0,0,0,0,0,0,0,0,0,0,0,0,0,0,0,0,0,0,0,0,0,0,0,0,0,0,0],"id":2,"left_children":[1,3,5,7,9,11,13,15,17,19,21,23,25,27,29,31,33,35,37,39,41,43,45,47,-1,-1,49,51,-1,-1,-1,53,55,57,59,61,63,65,67,69,71,73,75,77,-1,-1,79,81,83,85,87,89,-1,-1,-1,-1,-1,-1,-1,-1,-1,-1,-1,-1,-1,-1,-1,-1,-1,-1,-1,-1,-1,-1,-1,-1,-1,-1,-1,-1,-1,-1,-1,-1,-1,-1,-1,-1,-1,-1,-1],"loss_changes":[4.116121E-1,4.2462182E-1,2.8572872E-1,2.899674E-1,4.802649E-1,2.2290511E-1,2.6627892E-1,2.5344715E-1,4.1025597E-1,2.9713672E-1,3.043342E-1,7.746603E-2,1.0853503E-1,3.1907022E-2,2.5151893E-3,2.699757E-1,3.6583978E-1,6.950872E-1,4.0528834E-1,2.5398734E-1,1.8302083E-2,1.3099512E-1,3.659528E-1,4.670185E-2,0E0,0E0,9.018438E-2,5.9109926E-3,0E0,0E0,0E0,1.9095704E-1,3.2726184E-1,1.8603858E-1,2.2658461E-1,4.9211046E-1,1.5452766E-1,3.0751094E-1,2.4624702E-1,7.079229E-2,2.9070437E-2,5.536616E-3,1.2600679E-2,1.0702106E-1,0E0,0E0,2.113831E-1,9.069058E-2,1.1714846E-2,6.587945E-3,5.513271E-2,5.81001E-2,0E0,0E0,0E0,0E0,0E0,0E0,0E0,0E0,0E0,0E0,0E0,0E0,0E0,0E0,0E0,0E0,0E0,0E0,0E0,0E0,0E0,0E0,0E0,0E0,0E0,0E0,0E0,0E0,0E0,0E0,0E0,0E0,0E0,0E0,0E0,0E0,0E0,0E0,0E0],"parents":[2147483647,0,0,1,1,2,2,3,3,4,4,5,5,6,6,7,7,8,8,9,9,10,10,11,11,12,12,13,13,14,14,15,15,16,16,17,17,18,18,19,19,20,20,21,21,22,22,23,23,26,26,27,27,31,31,32,32,33,33,34,34,35,35,36,36,37,37,38,38,39,39,40,40,41,41,42,42,43,43,46,46,47,47,48,48,49,49,50,50,51,51],"right_children":[2,4,6,8,10,12,14,16,18,20,22,24,26,28,30,32,34,36,38,40,42,44,46,48,-1,-1,50,52,-1,-1,-1,54,56,58,60,62,64,66,68,70,72,74,76,78,-1,-1,80,82,84,86,88,90,-1,-1,-1,-1,-1,-1,-1,-1,-1,-1,-1,-1,-1,-1,-1,-1,-1,-1,-1,-1,-1,-1,-1,-1,-1,-1,-1,-1,-1,-1,-1,-1,-1,-1,-1,-1,-1,-1,-1],"split_conditions":[5.154E-1,5.12E0,2E0,1.83E-1,4.4292E0,8E0,9E0,8E0,2.74E0,3.239E-1,5.38E0,1.88E0,2.4533E0,4.13E0,2.13E0,2E0,4.88E0,2E0,2.5E-1,8E0,5E0,1.2E1,4E0,4E0,1.0661984E-2,2.0730136E-2,1.62E0,5.261E-1,-7.37679E-4,1.7014472E-2,3.925711E-3,8.8E-1,3E0,2.9292E0,1.1E1,3.134E-1,1.2E1,1.2E1,4.978E-1,2E0,1E1,4.629E-1,4.62E0,5E0,2.1097263E-2,2.0609757E-2,7E0,1.5E0,2.7336E0,1.5E0,5.345E-1,2.13E0,-2.102889E-2,-3.4020592E-3,-7.6868985E-4,1.2913315E-3,-7.693181E-5,-4.7066907E-4,-1.7002216E-3,1.2398731E-2,-5.0519607E-3,-3.265199E-4,2.2105756E-3,1.6791538E-3,-4.0281294E-3,1.5556699E-4,5.901241E-3,-1.1049095E-3,1.461444E-2,-1.4388176E-2,2.0339151E-3,2.071616E-2,1.1225938E-2,3.2087024E-2,1.2369555E-2,1.5363306E-2,1.1348337E-3,4.4118566E-3,4.7766292E-4,-2.1803405E-2,-4.55399E-3,-1.2651369E-2,1.0460556E-2,-1.8947298E-2,-5.6417515E-3,-2.861303E-3,-1.6830279E-2,1.7564297E-4,2.1669526E-2,-1.945991E-2,1.7540783E-3],"split_indices":[2,4,0,2,3,5,5,5,4,2,0,0,4,0,0,5,0,4,2,5,5,5,5,5,0,0,0,2,0,0,0,0,5,3,5,2,5,5,2,5,5,2,0,0,0,0,5,0,4,0,2,0,0,0,0,0,0,0,0,0,0,0,0,0,0,0,0,0,0,0,0,0,0,0,0,0,0,0,0,0,0,0,0,0,0,0,0,0,0,0,0],"split_type":[0,0,0,0,0,0,0,0,0,0,0,0,0,0,0,0,0,0,0,0,0,0,0,0,0,0,0,0,0,0,0,0,0,0,0,0,0,0,0,0,0,0,0,0,0,0,0,0,0,0,0,0,0,0,0,0,0,0,0,0,0,0,0,0,0,0,0,0,0,0,0,0,0,0,0,0,0,0,0,0,0,0,0,0,0,0,0,0,0,0,0],"sum_hessian":[7.3132E4,7.3083E4,4.9E1,7.2687E4,3.96E2,2.3E1,2.6E1,4.7791E4,2.4896E4,5.7E1,3.39E2,1.3E1,1E1,2.4E1,2E0,4.1774E4,6.017E3,1.1156E4,1.374E4,4.6E1,1.1E1,2.89E2,5E1,1.2E1,1E0,4E0,6E0,2.3E1,1E0,1E0,1E0,1.793E3,3.9981E4,5.976E3,4.1E1,6.347E3,4.809E3,1.0398E4,3.342E3,2.2E1,2.4E1,8E0,3E0,2.86E2,3E0,4E0,4.6E1,5E0,7E0,2E0,4E0,4E0,1.9E1,3.39E2,1.454E3,1.831E3,3.815E4,4.243E3,1.733E3,3.2E1,9E0,5.459E3,8.88E2,4.762E3,4.7E1,1.0305E4,9.3E1,3.333E3,9E0,2E0,2E1,7E0,1.7E1,6E0,2E0,2E0,1E0,1.69E2,1.17E2,8E0,3.8E1,3E0,2E0,5E0,2E0,1E0,1E0,3E0,1E0,2E0,2E0],"tree_param":{"num_deleted":"0","num_feature":"6","num_nodes":"91","size_leaf_vector":"1"}},{"base_weights":[3.930962E-6,-1.54719E-4,2.8924735E-2,-1.0176015E-4,-8.0348834E-2,5.4596E-2,-5.62289E-3,7.121208E-4,-4.279028E-3,-7.292992E-3,-1.4726849E-1,-6.824891E-2,6.798168E-2,1.4622061E-1,-3.2625E-2,-6.8555325E-3,1.334758E-3,-3.4405626E-2,-2.8686277E-3,-8.376413E-2,9.069691E-2,-1.7737286E-1,1.3262117E-1,1.718928E-2,-8.697775E-2,5.793416E-2,1.7686963E-1,1.03033304E-1,2.0501696E-1,-2.5899073E-2,-2.6492065E-2,-4.4657593E-3,-3.4165323E-2,2.9914293E-3,-5.6469545E-4,-3.7050948E-2,1.22845955E-1,9.476388E-2,-3.1363573E-3,-1.0579042E-1,1.01288855E-2,1.9071725E-1,6.297099E-3,-1.489293E-1,-2.4998382E-2,1.616375E-2,3.729427E-3,-6.9348514E-2,-2.2859585E-2,3.459223E-2,1.18058585E-1,2.1621439E-1,-7.881076E-2,1.5889893E-1,6.651439E-2,2.157439E-2,5.4237307E-3,1.0729773E-2,-5.5708893E-2,-1.3091356E-3,1.8420773E-4,-3.1611125E-3,-4.3858453E-3,1.586824E-4,9.828311E-4,-2.3267682E-4,3.7356972E-4,-3.1823495E-3,-1.1354797E-2,2.107743E-2,8.5508125E-3,1.6793218E-2,-1.9463914E-3,-2.6858528E-4,-5.5111763E-3,-3.6602465E-3,-1.5986547E-2,5.42908E-3,2.1125117E-2,-1.2471336E-2,8.364395E-3,-1.991318E-2,-1.1677614E-2,-8.767263E-3,6.9820373E-3,5.95852E-3,3.496183E-4,1.4782778E-2,1.0358176E-2,2.5653413E-2,1.1297912E-2,-1.1120819E-2,-7.007957E-4,1.7922519E-2,2.8633834E-3,-1.0023218E-3,1.06036095E-2,3.1216186E-4,1.6692443E-2,2.503143E-4,-1.4128605E-2],"categories":[],"categories_nodes":[],"categories_segments":[],"categories_sizes":[],"default_left":[0,0,0,0,0,0,0,0,0,0,1,0,0,0,0,1,0,0,0,0,0,0,0,0,0,1,0,0,0,0,0,0,0,0,0,0,0,1,0,0,0,0,0,0,0,0,0,0,0,1,0,1,0,0,0,0,0,0,1,0,0,0,0,0,0,0,0,0,0,0,0,0,0,0,0,0,0,0,0,0,0,0,0,0,0,0,0,0,0,0,0,0,0,0,0,0,0,0,0,0,0],"id":3,"left_children":[1,3,5,7,9,11,13,15,17,19,21,23,25,27,29,31,33,35,37,39,41,43,45,-1,47,49,51,53,55,57,-1,59,61,63,65,67,69,71,73,75,-1,77,79,81,-1,-1,-1,83,-1,85,87,89,91,93,95,-1,-1,97,99,-1,-1,-1,-1,-1,-1,-1,-1,-1,-1,-1,-1,-1,-1,-1,-1,-1,-1,-1,-1,-1,-1,-1,-1,-1,-1,-1,-1,-1,-1,-1,-1,-1,-1,-1,-1,-1,-1,-1,-1,-1,-1],"loss_changes":[3.355595E-1,3.0889645E-1,3.5417262E-1,2.4712761E-1,2.3359185E-1,3.8119888E-1,7.0588666E-1,2.8666246E-1,5.03542E-1,1.8743871E-1,2.3417091E-1,1.183951E-1,2.1622235E-1,4.489708E-2,2.2124974E-1,3.0169442E-1,1.768879E-1,2.250216E-1,2.9629663E-1,6.777984E-2,9.165773E-2,1.0272324E-2,2.269961E-3,0E0,3.9072827E-2,2.6396936E-1,1.8805474E-1,2.4113521E-2,4.472643E-3,1.5673935E-1,0E0,2.3147936E-1,7.823646E-3,2.8831807E-1,1.9845101E-1,2.0512635E-1,1.1524573E-2,2.62362E-1,2.6430276E-1,4.2785972E-2,0E0,2.5378466E-3,8.136424E-2,7.415384E-3,0E0,0E0,0E0,5.967442E-2,0E0,1.07820064E-1,7.5288415E-3,3.3453286E-2,6.1993357E-3,1.0754898E-2,3.736159E-2,0E0,0E0,7.672188E-2,3.9390165E-1,0E0,0E0,0E0,0E0,0E0,0E0,0E0,0E0,0E0,0E0,0E0,0E0,0E0,0E0,0E0,0E0,0E0,0E0,0E0,0E0,0E0,0E0,0E0,0E0,0E0,0E0,0E0,0E0,0E0,0E0,0E0,0E0,0E0,0E0,0E0,0E0,0E0,0E0,0E0,0E0,0E0,0E0],"parents":[2147483647,0,0,1,1,2,2,3,3,4,4,5,5,6,6,7,7,8,8,9,9,10,10,11,11,12,12,13,13,14,14,15,15,16,16,17,17,18,18,19,19,20,20,21,21,22,22,24,24,25,25,26,26,27,27,28,28,29,29,31,31,32,32,33,33,34,34,35,35,36,36,37,37,38,38,39,39,41,41,42,42,43,43,47,47,49,49,50,50,51,51,52,52,53,53,54,54,57,57,58,58],"right_children":[2,4,6,8,10,12,14,16,18,20,22,24,26,28,30,32,34,36,38,40,42,44,46,-1,48,50,52,54,56,58,-1,60,62,64,66,68,70,72,74,76,-1,78,80,82,-1,-1,-1,84,-1,86,88,90,92,94,96,-1,-1,98,100,-1,-1,-1,-1,-1,-1,-1,-1,-1,-1,-1,-1,-1,-1,-1,-1,-1,-1,-1,-1,-1,-1,-1,-1,-1,-1,-1,-1,-1,-1,-1,-1,-1,-1,-1,-1,-1,-1,-1,-1,-1,-1],"split_conditions":[5.12E0,5.154E-1,5E0,3.74E0,2E0,2E0,4E0,1.2E-1,3.5E0,8E0,9E0,4.75E0,2.673E-1,1.83E-1,6.12E0,1E1,2.74E0,4.0708E0,2.88E0,1.88E0,2.4533E0,5.669E-1,2.13E0,1.718928E-2,2.631E-1,7E0,4.978E-1,2E0,5.5E0,1.83E-1,-2.6492065E-2,7E0,1.2E1,2.3704E0,3.12E0,3.9836E0,6E0,3E0,3.134E-1,2.5691E0,1.01288855E-2,5.324E-1,1.62E0,2.13E0,-2.4998382E-2,1.616375E-2,3.729427E-3,1.637E-1,-2.2859585E-2,3E0,4.88E0,5E0,4.13E0,5.25E0,3E0,2.157439E-2,5.4237307E-3,5.88E0,5E0,-1.3091356E-3,1.8420773E-4,-3.1611125E-3,-4.3858453E-3,1.586824E-4,9.828311E-4,-2.3267682E-4,3.7356972E-4,-3.1823495E-3,-1.1354797E-2,2.107743E-2,8.5508125E-3,1.6793218E-2,-1.9463914E-3,-2.6858528E-4,-5.5111763E-3,-3.6602465E-3,-1.5986547E-2,5.42908E-3,2.1125117E-2,-1.2471336E-2,8.364395E-3,-1.991318E-2,-1.1677614E-2,-8.767263E-3,6.9820373E-3,5.95852E-3,3.496183E-4,1.4782778E-2,1.0358176E-2,2.5653413E-2,1.1297912E-2,-1.1120819E-2,-7.007957E-4,1.7922519E-2,2.8633834E-3,-1.0023218E-3,1.06036095E-2,3.1216186E-4,1.6692443E-2,2.503143E-4,-1.4128605E-2],"split_indices":[4,2,0,4,0,5,5,0,0,5,5,0,2,2,4,5,4,4,3,0,4,2,0,0,2,5,2,5,0,2,0,5,5,4,0,4,5,5,2,4,0,2,0,0,0,0,0,2,0,5,0,5,0,0,5,0,0,0,5,0,0,0,0,0,0,0,0,0,0,0,0,0,0,0,0,0,0,0,0,0,0,0,0,0,0,0,0,0,0,0,0,0,0,0,0,0,0,0,0,0,0],"split_type":[0,0,0,0,0,0,0,0,0,0,0,0,0,0,0,0,0,0,0,0,0,0,0,0,0,0,0,0,0,0,0,0,0,0,0,0,0,0,0,0,0,0,0,0,0,0,0,0,0,0,0,0,0,0,0,0,0,0,0,0,0,0,0,0,0,0,0,0,0,0,0,0,0,0,0,0,0,0,0,0,0,0,0,0,0,0,0,0,0,0,0,0,0,0,0,0,0,0,0,0,0],"sum_hessian":[7.3132E4,7.2734E4,3.98E2,7.2687E4,4.7E1,2.28E2,1.7E2,6.0835E4,1.1852E4,2.3E1,2.4E1,2.2E1,2.06E2,2.5E1,1.45E2,4.624E3,5.6211E4,5.29E2,1.1323E4,1.3E1,1E1,2.2E1,2E0,1E0,2.1E1,1.9E2,1.6E1,1.6E1,9E0,1.42E2,3E0,4.253E3,3.71E2,3.0024E4,2.6187E4,5.21E2,8E0,3E1,1.1293E4,1.2E1,1E0,4E0,6E0,1.8E1,4E0,1E0,1E0,2E1,1E0,1.38E2,5.2E1,1.4E1,2E0,5E0,1.1E1,8E0,1E0,6.4E1,7.8E1,1.796E3,2.457E3,2.97E2,7.4E1,2.4908E4,5.116E3,1.8576E4,7.611E3,4.89E2,3.2E1,1E0,7E0,1.8E1,1.2E1,1.1197E4,9.6E1,6E0,6E0,1E0,3E0,2E0,4E0,5E0,1.3E1,1.8E1,2E0,7.6E1,6.2E1,1.4E1,3.8E1,9E0,5E0,1E0,1E0,4E0,1E0,4E0,7E0,6.2E1,2E0,4.7E1,3.1E1],"tree_param":{"num_deleted":"0","num_feature":"6","num_nodes":"101","size_leaf_vector":"1"}},{"base_weights":[4.587057E-6,5.54829E-5,-7.4388936E-2,-9.1345406E-5,2.6938606E-2,1.829086E-2,-1.1854093E-1,-1.3823815E-3,2.3869167E-3,9.598869E-2,1.5080243E-2,-6.279964E-2,1.17367625E-1,-1.3776131E-1,1.2599011E-1,-6.4596155E-4,-7.6707792E-3,6.0599972E-3,-5.956137E-4,5.0043132E-2,1.8766414E-1,2.5277581E-2,-4.3200303E-2,-1.4592975E-1,4.951643E-2,1.7695636E-1,1.3539813E-2,-5.694299E-2,-1.5811272E-1,1.535556E-2,3.5429567E-3,7.1017996E-5,-5.8956435E-3,3.8864373E-4,-9.906638E-3,1.002571E-4,1.3924108E-2,1.4266255E-2,-2.2332768E-3,-5.3953707E-2,1.08116575E-1,5.2776642E-2,2.0965701E-1,1.1088143E-3,4.1383717E-2,1.8151674E-1,-6.618722E-2,-9.244576E-4,-1.7141788E-1,1.0007203E-2,-1.7544648E-2,5.157626E-3,1.9540733E-2,-1.1639912E-1,2.0167831E-2,-1.337946E-1,1.1574126E-2,-1.6414595E-1,-6.657556E-4,-1.0299649E-3,5.1576873E-5,-9.207159E-4,5.035074E-4,-5.399495E-4,1.7131513E-3,-2.298729E-3,-7.761749E-4,-2.5715848E-4,2.4269277E-3,1.3357156E-3,6.87384E-3,1.6126666E-3,-9.0278685E-3,-3.2413323E-4,3.469469E-3,6.25076E-3,-1.3853987E-2,6.128178E-3,1.5023738E-2,-2.1716606E-2,2.1514622E-2,2.4846612E-2,1.0356418E-2,9.1187906E-4,-6.3672448E-3,3.1773464E-3,1.2290741E-2,2.0113321E-2,5.1525445E-3,-1.8631844E-2,-3.676752E-3,-1.8996645E-2,-4.861182E-3,-3.937711E-3,1.3060138E-3,-2.0946711E-3,-1.5365197E-2,-1.573496E-2,-5.7789786E-3,-1.3569905E-2,-2.2687018E-2],"categories":[],"categories_nodes":[],"categories_segments":[],"categories_sizes":[],"default_left":[0,0,0,0,0,0,1,0,0,0,0,0,0,0,0,1,0,0,0,0,0,1,0,0,0,0,0,0,0,0,0,0,0,0,0,0,0,0,0,0,1,0,1,0,0,0,0,0,0,0,0,0,0,0,0,0,0,0,0,0,0,0,0,0,0,0,0,0,0,0,0,0,0,0,0,0,0,0,0,0,0,0,0,0,0,0,0,0,0,0,0,0,0,0,0,0,0,0,0,0,0],"id":4,"left_children":[1,3,5,7,9,11,13,15,17,19,21,23,25,27,29,31,33,35,37,39,41,43,45,47,49,51,53,55,57,-1,-1,59,61,63,65,67,69,71,73,75,77,79,81,83,85,87,89,-1,91,-1,93,-1,-1,95,-1,97,-1,99,-1,-1,-1,-1,-1,-1,-1,-1,-1,-1,-1,-1,-1,-1,-1,-1,-1,-1,-1,-1,-1,-1,-1,-1,-1,-1,-1,-1,-1,-1,-1,-1,-1,-1,-1,-1,-1,-1,-1,-1,-1,-1,-1],"loss_changes":[2.7690914E-1,2.884799E-1,2.067681E-1,2.3257044E-1,3.236244E-1,1.4395179E-1,1.7715588E-1,2.213151E-1,2.727521E-1,2.349093E-1,2.0315616E-1,1.005944E-1,4.7099784E-2,4.362917E-2,2.0486303E-3,1.6103198E-1,9.028274E-2,5.2290547E-1,3.3447036E-1,2.4741146E-1,4.529965E-2,1.12841085E-1,2.754572E-1,1.9318402E-2,1.8707292E-2,1.4885366E-3,1.2126123E-1,1.2165408E-1,2.1751285E-2,0E0,0E0,1.7362842E-1,1.8613641E-1,1.05627544E-1,1.0985941E-1,4.099895E-1,1.4856255E-1,2.667493E-1,4.6088892E-1,1.5642501E-1,4.208392E-2,2.220444E-1,4.0145755E-2,6.129149E-2,1.324175E-1,2.3863763E-3,1.5925802E-1,0E0,2.1547675E-3,0E0,2.5188038E-3,0E0,0E0,7.4491166E-3,0E0,1.6485453E-3,0E0,1.2037337E-2,0E0,0E0,0E0,0E0,0E0,0E0,0E0,0E0,0E0,0E0,0E0,0E0,0E0,0E0,0E0,0E0,0E0,0E0,0E0,0E0,0E0,0E0,0E0,0E0,0E0,0E0,0E0,0E0,0E0,0E0,0E0,0E0,0E0,0E0,0E0,0E0,0E0,0E0,0E0,0E0,0E0,0E0,0E0],"parents":[2147483647,0,0,1,1,2,2,3,3,4,4,5,5,6,6,7,7,8,8,9,9,10,10,11,11,12,12,13,13,14,14,15,15,16,16,17,17,18,18,19,19,20,20,21,21,22,22,23,23,24,24,25,25,26,26,27,27,28,28,31,31,32,32,33,33,34,34,35,35,36,36,37,37,38,38,39,39,40,40,41,41,42,42,43,43,44,44,45,45,46,46,48,48,50,50,53,53,55,55,57,57],"right_children":[2,4,6,8,10,12,14,16,18,20,22,24,26,28,30,32,34,36,38,40,42,44,46,48,50,52,54,56,58,-1,-1,60,62,64,66,68,70,72,74,76,78,80,82,84,86,88,90,-1,92,-1,94,-1,-1,96,-1,98,-1,100,-1,-1,-1,-1,-1,-1,-1,-1,-1,-1,-1,-1,-1,-1,-1,-1,-1,-1,-1,-1,-1,-1,-1,-1,-1,-1,-1,-1,-1,-1,-1,-1,-1,-1,-1,-1,-1,-1,-1,-1,-1,-1,-1],"split_conditions":[5.154E-1,5.12E0,5.327E-1,1.83E-1,4.4292E0,8E0,9E0,4.0238E0,2.74E0,2.673E-1,5.38E0,1.5E0,2.4533E0,2E0,2.13E0,8E0,5E0,2E0,4E0,6E0,2E0,2E0,4E0,8.8E-1,2E0,5.324E-1,1.62E0,1.88E0,4.13E0,1.535556E-2,3.5429567E-3,2E0,1.1E1,4E0,7E0,3.239E-1,4.532E-1,4.62E0,3.88E0,3E0,8E0,3.239E-1,5E0,2.266E-1,2.266E-1,1.89E-1,7E0,-9.244576E-4,1.38E0,1.0007203E-2,1.62E0,5.157626E-3,1.9540733E-2,1.5E0,2.0167831E-2,5E0,1.1574126E-2,5.669E-1,-6.657556E-4,-1.0299649E-3,5.1576873E-5,-9.207159E-4,5.035074E-4,-5.399495E-4,1.7131513E-3,-2.298729E-3,-7.761749E-4,-2.5715848E-4,2.4269277E-3,1.3357156E-3,6.87384E-3,1.6126666E-3,-9.0278685E-3,-3.2413323E-4,3.469469E-3,6.25076E-3,-1.3853987E-2,6.128178E-3,1.5023738E-2,-2.1716606E-2,2.1514622E-2,2.4846612E-2,1.0356418E-2,9.1187906E-4,-6.3672448E-3,3.1773464E-3,1.2290741E-2,2.0113321E-2,5.1525445E-3,-1.8631844E-2,-3.676752E-3,-1.8996645E-2,-4.861182E-3,-3.937711E-3,1.3060138E-3,-2.0946711E-3,-1.5365197E-2,-1.573496E-2,-5.7789786E-3,-1.3569905E-2,-2.2687018E-2],"split_indices":[2,4,3,2,3,5,5,4,4,2,0,0,4,0,0,5,5,4,5,5,5,5,5,0,5,2,0,0,0,0,0,5,5,5,5,2,2,0,3,5,5,2,5,2,2,2,5,0,0,0,0,0,0,0,0,5,0,2,0,0,0,0,0,0,0,0,0,0,0,0,0,0,0,0,0,0,0,0,0,0,0,0,0,0,0,0,0,0,0,0,0,0,0,0,0,0,0,0,0,0,0],"split_type":[0,0,0,0,0,0,0,0,0,0,0,0,0,0,0,0,0,0,0,0,0,0,0,0,0,0,0,0,0,0,0,0,0,0,0,0,0,0,0,0,0,0,0,0,0,0,0,0,0,0,0,0,0,0,0,0,0,0,0,0,0,0,0,0,0,0,0,0,0,0,0,0,0,0,0,0,0,0,0,0,0,0,0,0,0,0,0,0,0,0,0,0,0,0,0,0,0,0,0,0,0],"sum_hessian":[7.3132E4,7.3083E4,4.9E1,7.2687E4,3.96E2,1.6E1,3.3E1,4.7791E4,2.4896E4,5.7E1,3.39E2,9E0,7E0,3.1E1,2E0,4.2782E4,5.009E3,1.1156E4,1.374E4,3.9E1,1.8E1,2.89E2,5E1,5E0,4E0,4E0,3E0,7E0,2.4E1,1E0,1E0,3.7642E4,5.14E3,1.088E3,3.921E3,6.347E3,4.809E3,1.363E3,1.2377E4,1.4E1,2.5E1,3E0,1.5E1,1.16E2,1.73E2,4E0,4.6E1,1E0,4E0,2E0,2E0,1E0,3E0,2E0,1E0,5E0,2E0,2.3E1,1E0,1.547E3,3.6095E4,3.945E3,1.195E3,8.09E2,2.79E2,5.51E2,3.37E3,5.716E3,6.31E2,4.761E3,4.8E1,1.34E3,2.3E1,1.2049E4,3.28E2,6E0,8E0,1.3E1,1.2E1,1E0,2E0,1E1,5E0,1.04E2,1.2E1,1.56E2,1.7E1,3E0,1E0,8E0,3.8E1,3E0,1E0,1E0,1E0,1E0,1E0,3E0,2E0,1.8E1,5E0],"tree_param":{"num_deleted":"0","num_feature":"6","num_nodes":"101","size_leaf_vector":"1"}},{"base_weights":[4.763359E-6,5.0815852E-5,-6.7309335E-2,-8.2171166E-5,2.4399707E-2,1.7049983E-2,-1.07509315E-1,-1.244205E-3,2.1484592E-3,8.722689E-2,1.3610364E-2,-5.826035E-2,1.0905665E-1,-1.2544964E-1,1.196906E-1,-5.813899E-4,-6.9040805E-3,5.454906E-3,-5.3636555E-4,5.5997048E-2,2.0227486E-1,3.5939794E-2,-9.19598E-3,-1.3546716E-1,4.6039887E-2,1.642004E-1,1.2862824E-2,-5.249117E-2,-1.4377837E-1,1.4587781E-2,3.3658089E-3,-6.017352E-3,7.748237E-5,-5.8085388E-3,-2.203E-2,9.0552996E-5,1.253338E-2,5.661136E-3,-4.160745E-3,-5.6826556E-3,1.105025E-1,2.2672524E-1,9.6692815E-2,-6.8493E-2,4.9356237E-2,1.2114789E-1,-3.1605642E-2,-3.5571884E-2,-1.7652182E-1,9.340056E-3,-1.6667416E-2,4.8997435E-3,1.8075177E-2,-1.1057916E-1,1.915944E-2,-1.240008E-1,1.0802516E-2,-1.1733366E-1,-2.0796433E-2,-3.86146E-4,-3.0654843E-3,-2.2187598E-5,1.136376E-3,-7.7072944E-4,6.709248E-4,-3.0256805E-3,1.3663771E-3,-2.8402946E-4,1.8090932E-3,1.3043013E-3,-3.8298264E-3,5.040266E-4,6.549017E-3,-5.1275536E-4,6.197902E-3,-3.1288543E-3,7.208212E-3,1.6295424E-2,8.105158E-3,2.5645424E-2,8.178248E-3,1.2895459E-2,-4.6253203E-6,-8.023071E-3,7.7261776E-3,3.5327119E-3,8.945862E-3,9.00676E-3,1.6639424E-2,-2.5553498E-3,-2.3855528E-2,-8.782342E-4,-4.4575483E-3,-2.0457495E-2,-4.618123E-3,-3.7408248E-3,1.2407125E-3,-1.989937E-3,-1.4596938E-2,-1.4554835E-2,-5.3937137E-3,-1.7122924E-2,-8.795317E-3],"categories":[],"categories_nodes":[],"categories_segments":[],"categories_sizes":[],"default_left":[0,0,0,0,0,0,1,0,0,0,0,0,0,0,0,0,1,0,0,0,1,0,0,0,0,0,0,0,0,0,0,1,1,0,0,0,1,1,0,0,0,0,0,0,1,0,0,0,0,0,0,0,0,0,0,0,0,0,0,0,0,0,0,0,0,0,0,0,0,0,0,0,0,0,0,0,0,0,0,0,0,0,0,0,0,0,0,0,0,0,0,0,0,0,0,0,0,0,0,0,0,0,0],"id":5,"left_children":[1,3,5,7,9,11,13,15,17,19,21,23,25,27,29,31,33,35,37,39,41,43,45,47,49,51,53,55,57,-1,-1,59,61,63,65,67,69,71,73,75,77,79,81,83,85,87,89,91,93,-1,95,-1,-1,97,-1,99,-1,101,-1,-1,-1,-1,-1,-1,-1,-1,-1,-1,-1,-1,-1,-1,-1,-1,-1,-1,-1,-1,-1,-1,-1,-1,-1,-1,-1,-1,-1,-1,-1,-1,-1,-1,-1,-1,-1,-1,-1,-1,-1,-1,-1,-1,-1],"loss_changes":[2.2671442E-1,2.3665433E-1,1.7139517E-1,1.8841492E-1,2.679248E-1,1.2414759E-1,1.5360051E-1,1.7928533E-1,2.2101933E-1,1.9706318E-1,1.734764E-1,8.676378E-2,4.032381E-2,3.5244465E-2,1.8488877E-3,1.5323225E-1,8.289312E-2,4.236461E-1,3.0867523E-1,1.5863629E-1,9.055495E-3,2.4437265E-1,4.9747154E-1,1.8327788E-2,1.6406046E-2,6.774664E-4,1.0943827E-1,1.0522291E-1,1.8033206E-2,0E0,0E0,2.45542E-1,1.289281E-1,1.1112055E-1,9.966563E-2,3.3494875E-1,1.2510508E-1,1.8803774E-1,5.5478024E-1,4.8053775E-2,2.5411129E-2,1.7807603E-2,1.2489863E-2,4.041533E-2,8.291763E-2,2.0170003E-2,1.7551494E-1,3.321299E-4,5.178325E-3,0E0,2.2732192E-3,0E0,0E0,6.722834E-3,0E0,1.2077466E-3,0E0,1.660943E-2,0E0,0E0,0E0,0E0,0E0,0E0,0E0,0E0,0E0,0E0,0E0,0E0,0E0,0E0,0E0,0E0,0E0,0E0,0E0,0E0,0E0,0E0,0E0,0E0,0E0,0E0,0E0,0E0,0E0,0E0,0E0,0E0,0E0,0E0,0E0,0E0,0E0,0E0,0E0,0E0,0E0,0E0,0E0,0E0,0E0],"parents":[2147483647,0,0,1,1,2,2,3,3,4,4,5,5,6,6,7,7,8,8,9,9,10,10,11,11,12,12,13,13,14,14,15,15,16,16,17,17,18,18,19,19,20,20,21,21,22,22,23,23,24,24,25,25,26,26,27,27,28,28,31,31,32,32,33,33,34,34,35,35,36,36,37,37,38,38,39,39,40,40,41,41,42,42,43,43,44,44,45,45,46,46,47,47,48,48,50,50,53,53,55,55,57,57],"right_children":[2,4,6,8,10,12,14,16,18,20,22,24,26,28,30,32,34,36,38,40,42,44,46,48,50,52,54,56,58,-1,-1,60,62,64,66,68,70,72,74,76,78,80,82,84,86,88,90,92,94,-1,96,-1,-1,98,-1,100,-1,102,-1,-1,-1,-1,-1,-1,-1,-1,-1,-1,-1,-1,-1,-1,-1,-1,-1,-1,-1,-1,-1,-1,-1,-1,-1,-1,-1,-1,-1,-1,-1,-1,-1,-1,-1,-1,-1,-1,-1,-1,-1,-1,-1,-1,-1],"split_conditions":[5.154E-1,5.12E0,5.327E-1,1.83E-1,4.4292E0,8E0,9E0,4.0238E0,2.74E0,3.239E-1,5E0,1.5E0,2.4533E0,2E0,2.13E0,1.2E-1,1E1,2E0,1.89E-1,8E0,5E0,2E0,4E0,1.12E0,2E0,5.324E-1,1.62E0,1.88E0,5.669E-1,1.4587781E-2,3.3658089E-3,1E1,1.1E1,4.13E0,1.2E1,3.134E-1,1.2E1,1.2E1,4.5E0,2.673E-1,1E1,4.629E-1,4.62E0,1.637E-1,7E0,1.83E-1,6.12E0,8.8E-1,1.38E0,9.340056E-3,1.62E0,4.8997435E-3,1.8075177E-2,1.5E0,1.915944E-2,5E0,1.0802516E-2,2.13E0,-2.0796433E-2,-3.86146E-4,-3.0654843E-3,-2.2187598E-5,1.136376E-3,-7.7072944E-4,6.709248E-4,-3.0256805E-3,1.3663771E-3,-2.8402946E-4,1.8090932E-3,1.3043013E-3,-3.8298264E-3,5.040266E-4,6.549017E-3,-5.1275536E-4,6.197902E-3,-3.1288543E-3,7.208212E-3,1.6295424E-2,8.105158E-3,2.5645424E-2,8.178248E-3,1.2895459E-2,-4.6253203E-6,-8.023071E-3,7.7261776E-3,3.5327119E-3,8.945862E-3,9.00676E-3,1.6639424E-2,-2.5553498E-3,-2.3855528E-2,-8.782342E-4,-4.4575483E-3,-2.0457495E-2,-4.618123E-3,-3.7408248E-3,1.2407125E-3,-1.989937E-3,-1.4596938E-2,-1.4554835E-2,-5.3937137E-3,-1.7122924E-2,-8.795317E-3],"split_indices":[2,4,3,2,3,5,5,4,4,2,0,0,4,0,0,0,5,4,2,5,5,5,5,0,5,2,0,0,2,0,0,5,5,0,5,2,5,5,0,2,5,2,0,2,5,2,4,0,0,0,0,0,0,0,0,5,0,0,0,0,0,0,0,0,0,0,0,0,0,0,0,0,0,0,0,0,0,0,0,0,0,0,0,0,0,0,0,0,0,0,0,0,0,0,0,0,0,0,0,0,0,0,0],"split_type":[0,0,0,0,0,0,0,0,0,0,0,0,0,0,0,0,0,0,0,0,0,0,0,0,0,0,0,0,0,0,0,0,0,0,0,0,0,0,0,0,0,0,0,0,0,0,0,0,0,0,0,0,0,0,0,0,0,0,0,0,0,0,0,0,0,0,0,0,0,0,0,0,0,0,0,0,0,0,0,0,0,0,0,0,0,0,0,0,0,0,0,0,0,0,0,0,0,0,0,0,0,0,0],"sum_hessian":[7.3132E4,7.3083E4,4.9E1,7.2687E4,3.96E2,1.6E1,3.3E1,4.7791E4,2.4896E4,5.7E1,3.39E2,9E0,7E0,3.1E1,2E0,4.2782E4,5.009E3,1.1156E4,1.374E4,4.6E1,1.1E1,1.71E2,1.68E2,5E0,4E0,4E0,3E0,7E0,2.4E1,1E0,1E0,4.624E3,3.8158E4,4.672E3,3.37E2,6.347E3,4.809E3,5.07E3,8.67E3,2.2E1,2.4E1,8E0,3E0,1.9E1,1.52E2,2.4E1,1.44E2,2E0,3E0,2E0,2E0,1E0,3E0,2E0,1E0,5E0,2E0,1.9E1,5E0,4.253E3,3.71E2,3.7173E4,9.85E2,4.057E3,6.15E2,2.74E2,6.3E1,5.459E3,8.88E2,4.762E3,4.7E1,5.019E3,5.1E1,8.546E3,1.24E2,1.7E1,5E0,7E0,1.7E1,6E0,2E0,2E0,1E0,1.8E1,1E0,1.14E2,3.8E1,1.6E1,8E0,1.41E2,3E0,1E0,1E0,2E0,1E0,1E0,1E0,1E0,1E0,3E0,2E0,5E0,1.4E1],"tree_param":{"num_deleted":"0","num_feature":"6","num_nodes":"103","size_leaf_vector":"1"}},{"base_weights":[5.0742187E-6,4.701363E-5,-6.1297026E-2,-7.385927E-5,2.2177901E-2,1.5461228E-2,-9.78733E-2,-1.5426899E-3,1.3925909E-3,7.980065E-2,1.228291E-2,-5.4791458E-2,1.0134443E-1,-1.14650324E-1,1.13706075E-1,-8.865849E-4,-9.404843E-3,8.035975E-3,6.125582E-4,4.0816166E-2,1.5767321E-1,3.2416638E-2,-8.280902E-3,-1.26989E-1,4.280389E-2,1.5237534E-1,1.2219682E-2,-3.234456E-2,-1.2869418E-1,1.3858393E-2,3.197518E-3,-1.473893E-4,-6.074889E-3,1.4470298E-3,-1.2508893E-2,9.165337E-3,-6.414976E-2,-7.820328E-3,1.7133954E-3,-4.614495E-2,8.941619E-2,3.2823727E-2,1.7903101E-1,-6.1658535E-2,4.4502173E-2,1.1005897E-1,-2.8627219E-2,-3.379328E-2,-1.6513854E-1,8.717386E-3,-1.5834043E-2,4.6547563E-3,1.671954E-2,-1.05050206E-1,1.8201469E-2,6.6199154E-3,-6.529313E-2,-1.3349573E-1,-1.9270182E-4,-9.805533E-4,2.8993338E-5,-7.813288E-4,1.3966108E-3,-5.8559986E-4,2.334684E-3,-1.5608197E-3,3.3178323E-4,3.6141838E-4,2.0516228E-3,-1.0462078E-2,-4.383027E-3,-8.131057E-4,1.8789597E-2,1.8591678E-4,-5.4132543E-3,5.983168E-3,-1.23444E-2,5.047238E-3,1.2447751E-2,-2.0991186E-2,1.837062E-2,2.1228146E-2,8.823336E-3,-7.26299E-3,7.339868E-3,3.182513E-3,8.074212E-3,8.159067E-3,1.5160366E-2,-2.3016143E-3,-2.2066364E-2,-8.34322E-4,-4.23467E-3,-1.909366E-2,-4.387218E-3,-3.553784E-3,1.1786774E-3,-1.8904404E-3,-1.386709E-2,-1.4788851E-2,3.9066626E-3,-7.421154E-3,-1.475704E-2],"categories":[],"categories_nodes":[],"categories_segments":[],"categories_sizes":[],"default_left":[0,0,0,0,0,0,1,0,0,0,0,0,0,0,0,1,0,0,0,0,0,0,0,0,0,0,0,0,0,0,0,0,0,0,1,0,0,0,0,0,1,0,1,0,1,0,0,0,0,0,0,0,0,0,0,0,0,0,0,0,0,0,0,0,0,0,0,0,0,0,0,0,0,0,0,0,0,0,0,0,0,0,0,0,0,0,0,0,0,0,0,0,0,0,0,0,0,0,0,0,0,0,0],"id":6,"left_children":[1,3,5,7,9,11,13,15,17,19,21,23,25,27,29,31,33,35,37,39,41,43,45,47,49,51,53,55,57,-1,-1,59,61,63,65,67,69,71,73,75,77,79,81,83,85,87,89,91,93,-1,95,-1,-1,97,-1,-1,99,101,-1,-1,-1,-1,-1,-1,-1,-1,-1,-1,-1,-1,-1,-1,-1,-1,-1,-1,-1,-1,-1,-1,-1,-1,-1,-1,-1,-1,-1,-1,-1,-1,-1,-1,-1,-1,-1,-1,-1,-1,-1,-1,-1,-1,-1],"loss_changes":[1.8802594E-1,1.9550312E-1,1.4188978E-1,1.5656969E-1,2.2537996E-1,1.08122736E-1,1.3372529E-1,1.8731886E-1,1.884872E-1,1.6964203E-1,1.4103734E-1,7.5897075E-2,3.4522966E-2,3.2825947E-2,1.6686209E-3,1.2855023E-1,9.423439E-2,3.121723E-1,3.022105E-1,1.7317858E-1,4.4787258E-2,1.9829914E-1,4.1006556E-1,1.5751667E-2,1.4389131E-2,5.9328973E-5,9.876804E-2,2.38036E-2,1.6177058E-2,0E0,0E0,1.23926945E-1,1.4573711E-1,9.977617E-2,1.0673949E-1,2.3709753E-1,4.3933153E-2,2.3013051E-1,2.3451501E-1,1.3026425E-1,2.9218301E-2,1.8506029E-1,2.9574692E-2,3.496617E-2,6.772089E-2,1.7198235E-2,1.5116319E-1,2.9974733E-4,4.1369423E-3,0E0,2.0515814E-3,0E0,0E0,6.067358E-3,0E0,0E0,4.8875675E-2,1.0743141E-2,0E0,0E0,0E0,0E0,0E0,0E0,0E0,0E0,0E0,0E0,0E0,0E0,0E0,0E0,0E0,0E0,0E0,0E0,0E0,0E0,0E0,0E0,0E0,0E0,0E0,0E0,0E0,0E0,0E0,0E0,0E0,0E0,0E0,0E0,0E0,0E0,0E0,0E0,0E0,0E0,0E0,0E0,0E0,0E0,0E0],"parents":[2147483647,0,0,1,1,2,2,3,3,4,4,5,5,6,6,7,7,8,8,9,9,10,10,11,11,12,12,13,13,14,14,15,15,16,16,17,17,18,18,19,19,20,20,21,21,22,22,23,23,24,24,25,25,26,26,27,27,28,28,31,31,32,32,33,33,34,34,35,35,36,36,37,37,38,38,39,39,40,40,41,41,42,42,43,43,44,44,45,45,46,46,47,47,48,48,50,50,53,53,56,56,57,57],"right_children":[2,4,6,8,10,12,14,16,18,20,22,24,26,28,30,32,34,36,38,40,42,44,46,48,50,52,54,56,58,-1,-1,60,62,64,66,68,70,72,74,76,78,80,82,84,86,88,90,92,94,-1,96,-1,-1,98,-1,-1,100,102,-1,-1,-1,-1,-1,-1,-1,-1,-1,-1,-1,-1,-1,-1,-1,-1,-1,-1,-1,-1,-1,-1,-1,-1,-1,-1,-1,-1,-1,-1,-1,-1,-1,-1,-1,-1,-1,-1,-1,-1,-1,-1,-1,-1,-1],"split_conditions":[5.154E-1,5.12E0,5.327E-1,1.637E-1,4.4292E0,8E0,9E0,4.0238E0,4E0,2.673E-1,5E0,1.5E0,2.4533E0,5.261E-1,2.13E0,8E0,5E0,4.62E0,7E0,6E0,2E0,2E0,4E0,1.12E0,2E0,5.324E-1,1.62E0,2E0,4.13E0,1.3858393E-2,3.197518E-3,2E0,1.2E1,4E0,9E0,3E0,2E0,4.629E-1,4.75E0,3E0,8E0,3.239E-1,5E0,1.637E-1,7E0,1.83E-1,6.12E0,8.8E-1,1.38E0,8.717386E-3,1.62E0,4.6547563E-3,1.671954E-2,1.5E0,1.8201469E-2,6.6199154E-3,2.13E0,2E0,-1.9270182E-4,-9.805533E-4,2.8993338E-5,-7.813288E-4,1.3966108E-3,-5.8559986E-4,2.334684E-3,-1.5608197E-3,3.3178323E-4,3.6141838E-4,2.0516228E-3,-1.0462078E-2,-4.383027E-3,-8.131057E-4,1.8789597E-2,1.8591678E-4,-5.4132543E-3,5.983168E-3,-1.23444E-2,5.047238E-3,1.2447751E-2,-2.0991186E-2,1.837062E-2,2.1228146E-2,8.823336E-3,-7.26299E-3,7.339868E-3,3.182513E-3,8.074212E-3,8.159067E-3,1.5160366E-2,-2.3016143E-3,-2.2066364E-2,-8.34322E-4,-4.23467E-3,-1.909366E-2,-4.387218E-3,-3.553784E-3,1.1786774E-3,-1.8904404E-3,-1.386709E-2,-1.4788851E-2,3.9066626E-3,-7.421154E-3,-1.475704E-2],"split_indices":[2,4,3,2,3,5,5,4,5,2,0,0,4,2,0,5,5,0,5,5,5,5,5,0,5,2,0,0,0,0,0,5,5,5,5,5,5,2,0,5,5,2,5,2,5,2,4,0,0,0,0,0,0,0,0,0,0,0,0,0,0,0,0,0,0,0,0,0,0,0,0,0,0,0,0,0,0,0,0,0,0,0,0,0,0,0,0,0,0,0,0,0,0,0,0,0,0,0,0,0,0,0,0],"split_type":[0,0,0,0,0,0,0,0,0,0,0,0,0,0,0,0,0,0,0,0,0,0,0,0,0,0,0,0,0,0,0,0,0,0,0,0,0,0,0,0,0,0,0,0,0,0,0,0,0,0,0,0,0,0,0,0,0,0,0,0,0,0,0,0,0,0,0,0,0,0,0,0,0,0,0,0,0,0,0,0,0,0,0,0,0,0,0,0,0,0,0,0,0,0,0,0,0,0,0,0,0,0,0],"sum_hessian":[7.3132E4,7.3083E4,4.9E1,7.2687E4,3.96E2,1.6E1,3.3E1,3.6314E4,3.6373E4,5.7E1,3.39E2,9E0,7E0,3.1E1,2E0,3.3518E4,2.796E3,3.821E3,3.2552E4,3.9E1,1.8E1,1.71E2,1.68E2,5E0,4E0,4E0,3E0,5E0,2.6E1,1E0,1E0,2.9339E4,4.179E3,6.22E2,2.174E3,3.763E3,5.8E1,3.758E3,2.8794E4,1.4E1,2.5E1,3E0,1.5E1,1.9E1,1.52E2,2.4E1,1.44E2,2E0,3E0,2E0,2E0,1E0,3E0,2E0,1E0,1E0,4E0,2.5E1,1E0,1.27E3,2.8069E4,3.846E3,3.33E2,4.67E2,1.55E2,1.818E3,3.56E2,2.528E3,1.235E3,1.8E1,4E1,3.753E3,5E0,2.872E4,7.4E1,6E0,8E0,1.3E1,1.2E1,1E0,2E0,1E1,5E0,1.8E1,1E0,1.14E2,3.8E1,1.6E1,8E0,1.41E2,3E0,1E0,1E0,2E0,1E0,1E0,1E0,1E0,1E0,2E0,2E0,6E0,1.9E1],"tree_param":{"num_deleted":"0","num_feature":"6","num_nodes":"103","size_leaf_vector":"1"}},{"base_weights":[5.1413713E-6,-1.0229314E-4,1.9589713E-2,1.2128941E-3,-1.6237017E-3,2.7356872E-2,-3.394614E-2,-4.3983962E-3,2.2520293E-3,-1.4644269E-3,-3.9016318E-2,2.0691862E-2,1.1290773E-1,2.2890512E-2,-1.0990766E-1,-2.3770003E-2,-3.1892247E-3,2.8403347E-2,1.9538638E-3,-1.5526915E-3,6.741601E-2,-4.4814233E-2,2.4649112E-2,1.8237522E-2,1.2958372E-1,1.2953955E-1,-5.2238803E-2,-6.5345764E-2,1.43303E-1,-1.7017184E-1,4.3540128E-2,-2.6983162E-2,7.1124695E-3,1.3812612E-3,-9.800069E-3,1.0240069E-1,1.4923183E-2,1.56433E-3,1.49503825E-2,-1.2986425E-3,-1.9084658E-2,1.077673E-1,-1.5550022E-2,4.4815536E-3,-6.3706554E-2,2.8342016E-2,-1.8145719E-4,-6.34933E-3,1.7234545E-2,2.8886206E-2,1.4319324E-1,-7.6527535E-3,-1.8306673E-4,-2.3109807E-2,-2.688223E-2,2.2843013E-2,-3.8586397E-2,-1.88148E-2,4.9735415E-3,-9.250799E-2,1.6870322E-2,-1.7982724E-3,-6.6501E-3,-1.3135828E-4,8.490934E-4,-7.4370706E-4,-6.761269E-3,2.1428512E-3,1.4232288E-2,2.1005326E-3,-1.0812002E-2,8.790655E-5,7.048343E-4,2.3400828E-3,-4.890522E-3,2.440001E-4,-2.4496144E-4,-4.53422E-3,1.2033728E-3,-1.1773051E-2,1.3112684E-2,8.753236E-3,-4.885023E-3,-1.4747334E-2,-2.8409164E-3,1.3570486E-3,7.6682256E-3,7.830625E-3,-3.0439592E-3,-1.9941626E-2,1.7145913E-2,1.6300613E-2,5.1153344E-3,-5.051102E-3,1.9395417E-2,1.0446368E-2,-1.6877433E-2,-1.6213082E-2,5.8180243E-3],"categories":[],"categories_nodes":[],"categories_segments":[],"categories_sizes":[],"default_left":[0,0,0,0,0,0,1,0,0,0,1,1,0,0,0,0,1,0,1,0,1,0,0,0,0,0,0,0,0,0,0,0,0,0,0,0,0,0,0,0,0,0,0,0,0,1,0,0,0,0,0,0,0,0,0,0,0,0,0,0,0,0,0,0,0,0,0,0,0,0,0,0,0,0,0,0,0,0,0,0,0,0,0,0,0,0,0,0,0,0,0,0,0,0,0,0,0,0,0],"id":7,"left_children":[1,3,5,7,9,11,13,15,17,19,21,23,25,27,29,31,33,35,37,39,41,43,-1,45,47,49,51,53,55,57,59,61,-1,63,65,67,69,71,73,75,77,79,-1,81,83,85,87,-1,-1,89,91,-1,-1,93,-1,-1,95,-1,-1,97,-1,-1,-1,-1,-1,-1,-1,-1,-1,-1,-1,-1,-1,-1,-1,-1,-1,-1,-1,-1,-1,-1,-1,-1,-1,-1,-1,-1,-1,-1,-1,-1,-1,-1,-1,-1,-1,-1,-1],"loss_changes":[1.5387814E-1,1.4554012E-1,1.6684143E-1,2.2748455E-1,2.00793E-1,1.966626E-1,2.2270314E-1,1.4271441E-1,2.5661218E-1,2.0427331E-1,2.4776101E-1,8.4495485E-2,7.543421E-2,3.2810673E-1,2.1085224E-1,1.1107761E-1,1.734161E-1,3.685431E-1,1.6474852E-1,1.493616E-1,4.0354097E-1,1.3160053E-1,0E0,5.9375674E-2,6.873692E-2,2.7472317E-2,3.5329526E-3,1.4848001E-1,2.1010268E-1,7.26071E-2,1.3480382E-1,1.2222436E-1,0E0,6.503835E-2,3.1998694E-1,1.8120766E-1,2.3800644E-1,1.1875034E-1,5.121534E-1,1.4227414E-1,3.919328E-1,2.1033594E-1,0E0,1.8144588E-1,2.9739878E-1,1.4605558E-1,2.7312124E-1,0E0,0E0,1.6439074E-1,2.8133214E-2,0E0,0E0,1.0496187E-1,0E0,0E0,1.1074776E-1,0E0,0E0,5.139817E-2,0E0,0E0,0E0,0E0,0E0,0E0,0E0,0E0,0E0,0E0,0E0,0E0,0E0,0E0,0E0,0E0,0E0,0E0,0E0,0E0,0E0,0E0,0E0,0E0,0E0,0E0,0E0,0E0,0E0,0E0,0E0,0E0,0E0,0E0,0E0,0E0,0E0,0E0,0E0],"parents":[2147483647,0,0,1,1,2,2,3,3,4,4,5,5,6,6,7,7,8,8,9,9,10,10,11,11,12,12,13,13,14,14,15,15,16,16,17,17,18,18,19,19,20,20,21,21,23,23,24,24,25,25,26,26,27,27,28,28,29,29,30,30,31,31,33,33,34,34,35,35,36,36,37,37,38,38,39,39,40,40,41,41,43,43,44,44,45,45,46,46,49,49,50,50,53,53,56,56,59,59],"right_children":[2,4,6,8,10,12,14,16,18,20,22,24,26,28,30,32,34,36,38,40,42,44,-1,46,48,50,52,54,56,58,60,62,-1,64,66,68,70,72,74,76,78,80,-1,82,84,86,88,-1,-1,90,92,-1,-1,94,-1,-1,96,-1,-1,98,-1,-1,-1,-1,-1,-1,-1,-1,-1,-1,-1,-1,-1,-1,-1,-1,-1,-1,-1,-1,-1,-1,-1,-1,-1,-1,-1,-1,-1,-1,-1,-1,-1,-1,-1,-1,-1,-1,-1],"split_conditions":[5.12E0,3E0,5.38E0,5E-1,3.981E-1,2.95E-1,4E0,2E0,1.64E-2,3.78E-1,1E1,1.2E1,4.978E-1,5.62E0,1.89E-1,1.64E-2,5E0,4E0,1.1E1,3.134E-1,8E0,3.24E0,2.4649112E-2,5E0,4.75E0,2E0,4.13E0,2.673E-1,6.12E0,6E0,7E0,1.2E-1,7.1124695E-3,1.2E-1,1.64E-2,2E0,8.8E-1,2.631E-1,2.631E-1,8E0,3.273E-1,3E0,-1.5550022E-2,1E1,1E1,7E0,6E0,-6.34933E-3,1.7234545E-2,3.239E-1,5.12E0,-7.6527535E-3,-1.8306673E-4,2.266E-1,-2.688223E-2,2.2843013E-2,4E0,-1.88148E-2,4.9735415E-3,2.266E-1,1.6870322E-2,-1.7982724E-3,-6.6501E-3,-1.3135828E-4,8.490934E-4,-7.4370706E-4,-6.761269E-3,2.1428512E-3,1.4232288E-2,2.1005326E-3,-1.0812002E-2,8.790655E-5,7.048343E-4,2.3400828E-3,-4.890522E-3,2.440001E-4,-2.4496144E-4,-4.53422E-3,1.2033728E-3,-1.1773051E-2,1.3112684E-2,8.753236E-3,-4.885023E-3,-1.4747334E-2,-2.8409164E-3,1.3570486E-3,7.6682256E-3,7.830625E-3,-3.0439592E-3,-1.9941626E-2,1.7145913E-2,1.6300613E-2,5.1153344E-3,-5.051102E-3,1.9395417E-2,1.0446368E-2,-1.6877433E-2,-1.6213082E-2,5.8180243E-3],"split_indices":[4,4,0,0,2,2,5,5,3,2,5,5,2,0,2,3,5,5,5,2,5,4,0,0,0,5,0,2,4,0,5,0,0,0,3,5,0,2,2,5,2,5,0,5,5,5,5,0,0,2,0,0,0,2,0,0,5,0,0,2,0,0,0,0,0,0,0,0,0,0,0,0,0,0,0,0,0,0,0,0,0,0,0,0,0,0,0,0,0,0,0,0,0,0,0,0,0,0,0],"split_type":[0,0,0,0,0,0,0,0,0,0,0,0,0,0,0,0,0,0,0,0,0,0,0,0,0,0,0,0,0,0,0,0,0,0,0,0,0,0,0,0,0,0,0,0,0,0,0,0,0,0,0,0,0,0,0,0,0,0,0,0,0,0,0,0,0,0,0,0,0,0,0,0,0,0,0,0,0,0,0,0,0,0,0,0,0,0,0,0,0,0,0,0,0,0,0,0,0,0,0],"sum_hessian":[7.3132E4,7.2734E4,3.98E2,3.9011E4,3.3723E4,3.48E2,5E1,6.095E3,3.2916E4,3.3581E4,1.42E2,3.24E2,2.4E1,2.9E1,2.1E1,3.57E2,5.738E3,3.7E2,3.2546E4,3.3539E4,4.2E1,1.4E2,2E0,3.18E2,6E0,2.2E1,2E0,1.7E1,1.2E1,1.5E1,6E0,3.46E2,1.1E1,3.393E3,2.345E3,5.6E1,3.14E2,3.16E4,9.46E2,3.3061E4,4.78E2,3.6E1,6E0,3.9E1,1.01E2,2.05E2,1.13E2,1E0,5E0,3E0,1.9E1,1E0,1E0,1.5E1,2E0,8E0,4E0,1.4E1,1E0,3E0,3E0,2.83E2,6.3E1,2.461E3,9.32E2,2.254E3,9.1E1,1.9E1,3.7E1,3E2,1.4E1,2.8091E4,3.509E3,8.36E2,1.1E2,7.782E3,2.5279E4,2.59E2,2.19E2,3E0,3.3E1,1.5E1,2.4E1,2.9E1,7.2E1,1.58E2,4.7E1,3.1E1,8.2E1,1E0,2E0,1.5E1,4E0,1.4E1,1E0,2E0,2E0,2E0,1E0],"tree_param":{"num_deleted":"0","num_feature":"6","num_nodes":"99","size_leaf_vector":"1"}},{"base_weights":[4.945147E-6,4.1516407E-5,-5.3450637E-2,8.902E-6,6.443005E-2,1.4583137E-2,-8.589544E-2,-1.8929962E-4,9.085794E-3,7.7694E-2,-2.0653604E-2,-5.121679E-2,9.501015E-2,-1.01578176E-1,1.1001881E-2,4.9050077E-4,-4.0594535E-3,7.172196E-3,1.09929256E-1,5.451578E-2,1.4117134E-1,-1.180514E-1,3.9228104E-2,1.4315218E-2,1.1080079E-2,-2.9295014E-2,-1.1387894E-1,-4.765701E-3,9.231763E-4,-3.148794E-2,-2.6413165E-3,-3.6238197E-2,9.713749E-3,2.4213504E-2,4.803491E-2,6.909733E-2,-1.6959313E-2,8.141552E-3,1.726929E-2,-3.3243715E-3,-1.5214431E-1,8.089241E-3,-1.5512228E-2,-1.0026758E-1,1.7256154E-2,-7.322064E-2,3.9037485E-2,-1.18125126E-1,-1.7391295E-4,-2.863115E-4,-2.6509883E-3,4.4214734E-4,2.7295308E-5,-3.3459277E-3,1.19170565E-2,8.681548E-3,-2.9060346E-4,-4.996415E-3,1.5281424E-2,3.4247208E-4,4.000857E-3,6.748892E-3,-1.7052265E-2,1.4575139E-2,4.942918E-3,-1.7483843E-2,-4.2030974E-3,-3.4113363E-3,1.0845021E-3,-1.831159E-3,-1.3208978E-2,6.253678E-3,-1.393187E-2,1.03832325E-2,-4.5276093E-3,-6.960445E-3,-1.29201105E-2],"categories":[],"categories_nodes":[],"categories_segments":[],"categories_sizes":[],"default_left":[0,0,0,0,1,0,1,0,1,0,0,0,0,0,0,0,0,0,0,0,0,0,0,0,0,0,0,1,0,0,0,1,0,0,0,0,0,0,0,0,0,0,0,0,0,0,0,0,0,0,0,0,0,0,0,0,0,0,0,0,0,0,0,0,0,0,0,0,0,0,0,0,0,0,0,0,0],"id":8,"left_children":[1,3,5,7,9,11,13,15,17,19,-1,21,23,25,-1,27,29,31,33,35,37,39,41,-1,43,45,47,49,51,53,55,57,59,-1,61,63,-1,-1,-1,-1,65,-1,67,69,-1,71,73,75,-1,-1,-1,-1,-1,-1,-1,-1,-1,-1,-1,-1,-1,-1,-1,-1,-1,-1,-1,-1,-1,-1,-1,-1,-1,-1,-1,-1,-1],"loss_changes":[1.4297271E-1,1.5347537E-1,1.1161974E-1,1.3141909E-1,1.4902753E-1,9.483167E-2,1.1563954E-1,1.8808205E-1,3.0044383E-1,4.5270473E-2,0E0,6.507942E-2,3.0738376E-2,2.5116354E-2,0E0,1.3829578E-1,4.1537946E-1,1.6948766E-1,2.2567001E-1,1.03218414E-1,2.8924644E-3,1.22902095E-2,1.2658411E-2,0E0,8.9224644E-2,2.0867636E-2,1.2651026E-2,1.9126117E-1,1.2779908E-1,1.5991133E-1,2.4077828E-1,2.2820386E-1,2.759337E-1,0E0,1.00796625E-1,3.3501998E-2,0E0,0E0,0E0,0E0,2.647072E-3,0E0,1.8407844E-3,5.405288E-3,0E0,4.460575E-2,2.1090373E-2,4.9797893E-3,0E0,0E0,0E0,0E0,0E0,0E0,0E0,0E0,0E0,0E0,0E0,0E0,0E0,0E0,0E0,0E0,0E0,0E0,0E0,0E0,0E0,0E0,0E0,0E0,0E0,0E0,0E0,0E0,0E0],"parents":[2147483647,0,0,1,1,2,2,3,3,4,4,5,5,6,6,7,7,8,8,9,9,11,11,12,12,13,13,15,15,16,16,17,17,18,18,19,19,20,20,21,21,22,22,24,24,25,25,26,26,27,27,28,28,29,29,30,30,31,31,32,32,34,34,35,35,40,40,42,42,43,43,45,45,46,46,47,47],"right_children":[2,4,6,8,10,12,14,16,18,20,-1,22,24,26,-1,28,30,32,34,36,38,40,42,-1,44,46,48,50,52,54,56,58,60,-1,62,64,-1,-1,-1,-1,66,-1,68,70,-1,72,74,76,-1,-1,-1,-1,-1,-1,-1,-1,-1,-1,-1,-1,-1,-1,-1,-1,-1,-1,-1,-1,-1,-1,-1,-1,-1,-1,-1,-1,-1],"split_conditions":[5.154E-1,4.91E-1,5.327E-1,4.13E0,1.2E1,8E0,9E0,3.74E0,1.2E1,2.88E0,-2.0653604E-2,1.5E0,2.4533E0,5.261E-1,1.1001881E-2,1.2E-1,3.5E0,3.88E0,4.38E0,2.62E0,5E-1,1.12E0,2E0,1.4315218E-2,1.62E0,2.13E0,4.13E0,1E1,1.4533E0,4.0708E0,2.88E0,1.1E1,1.89E-1,2.4213504E-2,5.25E0,6.2E-1,-1.6959313E-2,8.141552E-3,1.726929E-2,-3.3243715E-3,1.38E0,8.089241E-3,1.62E0,1.5E0,1.7256154E-2,2E0,2.25E0,2E0,-1.7391295E-4,-2.863115E-4,-2.6509883E-3,4.4214734E-4,2.7295308E-5,-3.3459277E-3,1.19170565E-2,8.681548E-3,-2.9060346E-4,-4.996415E-3,1.5281424E-2,3.4247208E-4,4.000857E-3,6.748892E-3,-1.7052265E-2,1.4575139E-2,4.942918E-3,-1.7483843E-2,-4.2030974E-3,-3.4113363E-3,1.0845021E-3,-1.831159E-3,-1.3208978E-2,6.253678E-3,-1.393187E-2,1.03832325E-2,-4.5276093E-3,-6.960445E-3,-1.29201105E-2],"split_indices":[2,2,3,0,5,5,5,4,5,0,0,0,4,2,0,0,0,3,0,0,2,0,5,0,0,0,0,5,4,4,3,5,2,0,0,0,0,0,0,0,0,0,0,0,0,0,0,0,0,0,0,0,0,0,0,0,0,0,0,0,0,0,0,0,0,0,0,0,0,0,0,0,0,0,0,0,0],"split_type":[0,0,0,0,0,0,0,0,0,0,0,0,0,0,0,0,0,0,0,0,0,0,0,0,0,0,0,0,0,0,0,0,0,0,0,0,0,0,0,0,0,0,0,0,0,0,0,0,0,0,0,0,0,0,0,0,0,0,0,0,0,0,0,0,0,0,0,0,0,0,0,0,0,0,0,0,0],"sum_hessian":[7.3132E4,7.3083E4,4.9E1,7.3047E4,3.6E1,1.6E1,3.3E1,7.1487E4,1.56E3,3.5E1,1E0,9E0,7E0,3.1E1,2E0,6.0807E4,1.068E4,1.532E3,2.8E1,2.7E1,8E0,5E0,4E0,4E0,3E0,5E0,2.6E1,4.624E3,5.6183E4,5.24E2,1.0156E4,8.4E1,1.448E3,8E0,2E1,2.6E1,1E0,4E0,4E0,2E0,3E0,2E0,2E0,2E0,1E0,3E0,2E0,2.5E1,1E0,4.253E3,3.71E2,8.805E3,4.7378E4,5.18E2,6E0,2.9E1,1.0127E4,7.9E1,5E0,1.2E3,2.48E2,1.9E1,1E0,4E0,2.2E1,2E0,1E0,1E0,1E0,1E0,1E0,1E0,2E0,1E0,1E0,6E0,1.9E1],"tree_param":{"num_deleted":"0","num_feature":"6","num_nodes":"77","size_leaf_vector":"1"}},{"base_weights":[4.9520404E-6,3.8052498E-5,-4.8377424E-2,8.5997135E-6,5.8184784E-2,1.2964968E-2,-7.762576E-2,-8.80936E-4,1.7161737E-3,7.070154E-2,-1.9620923E-2,-4.802E-2,8.7575555E-2,-9.210401E-2,1.0268422E-1,-9.262273E-3,-5.5138004E-4,9.017482E-3,8.431677E-4,4.9155604E-2,1.2987761E-1,-1.1041481E-1,3.645777E-2,8.390911E-3,1.3340816E-1,-2.6669271E-2,-1.0323381E-1,1.2177718E-2,3.2249154E-3,-4.3147155E-3,-2.2037392E-2,1.2216985E-2,-1.0844142E-3,8.137823E-3,1.545322E-1,-8.866134E-3,2.1168627E-3,6.291051E-2,-1.6111348E-2,7.490226E-3,1.5887745E-2,-3.1027466E-3,-1.4235163E-1,7.5499574E-3,-1.4736623E-2,9.484474E-3,-1.2548529E-2,1.7545821E-2,-1.7396003E-3,5.9409947E-3,-5.5767104E-2,-1.0707725E-1,-1.6521662E-4,-2.4635964E-3,2.797979E-4,-2.3702644E-3,1.2096152E-2,2.2902123E-3,2.06955E-4,-4.678398E-5,-4.976908E-4,4.4897525E-4,2.5103444E-3,1.6035777E-2,3.3574402E-3,-9.289359E-4,2.67283E-2,1.9038698E-3,1.3101372E-4,1.3409129E-2,4.4701193E-3,-1.6318254E-2,-3.992942E-3,-3.2407702E-3,1.0302768E-3,-1.3003078E-2,3.7085612E-3,-1.4567236E-2,-8.821509E-3],"categories":[],"categories_nodes":[],"categories_segments":[],"categories_sizes":[],"default_left":[0,0,0,0,1,0,1,0,0,0,0,0,0,0,0,0,0,0,0,0,0,0,0,0,0,0,0,0,0,0,0,0,1,0,0,0,0,0,0,0,0,0,0,0,0,0,0,0,0,0,0,0,0,0,0,0,0,0,0,0,0,0,0,0,0,0,0,0,0,0,0,0,0,0,0,0,0,0,0],"id":9,"left_children":[1,3,5,7,9,11,13,15,17,19,-1,21,23,25,27,29,31,33,35,37,39,41,43,45,47,49,51,-1,-1,53,55,57,59,61,63,65,67,69,-1,-1,-1,-1,71,-1,73,-1,-1,-1,-1,-1,75,77,-1,-1,-1,-1,-1,-1,-1,-1,-1,-1,-1,-1,-1,-1,-1,-1,-1,-1,-1,-1,-1,-1,-1,-1,-1,-1,-1],"loss_changes":[1.1712279E-1,1.2516193E-1,9.0714544E-2,1.1095763E-1,1.3168725E-1,8.15575E-2,9.821716E-2,1.3265675E-1,1.5947205E-1,3.9515913E-2,0E0,5.6735225E-2,2.7914494E-2,2.0551622E-2,1.07228756E-4,1.14749566E-1,3.1453776E-1,3.407672E-1,2.764019E-1,9.111823E-2,2.448216E-3,1.0795459E-2,1.1106217E-2,5.819806E-2,3.475888E-2,1.8341431E-2,1.03645325E-2,0E0,0E0,1.8955936E-1,1.2359856E-1,2.007589E-1,1.06466986E-1,1.6433376E-1,5.890429E-3,3.054185E-1,2.69697E-1,2.9002093E-2,0E0,0E0,0E0,0E0,2.0184144E-3,0E0,1.6613081E-3,0E0,0E0,0E0,0E0,0E0,3.9300192E-2,6.0771704E-3,0E0,0E0,0E0,0E0,0E0,0E0,0E0,0E0,0E0,0E0,0E0,0E0,0E0,0E0,0E0,0E0,0E0,0E0,0E0,0E0,0E0,0E0,0E0,0E0,0E0,0E0,0E0],"parents":[2147483647,0,0,1,1,2,2,3,3,4,4,5,5,6,6,7,7,8,8,9,9,11,11,12,12,13,13,14,14,15,15,16,16,17,17,18,18,19,19,20,20,21,21,22,22,23,23,24,24,25,25,26,26,29,29,30,30,31,31,32,32,33,33,34,34,35,35,36,36,37,37,42,42,44,44,50,50,51,51],"right_children":[2,4,6,8,10,12,14,16,18,20,-1,22,24,26,28,30,32,34,36,38,40,42,44,46,48,50,52,-1,-1,54,56,58,60,62,64,66,68,70,-1,-1,-1,-1,72,-1,74,-1,-1,-1,-1,-1,76,78,-1,-1,-1,-1,-1,-1,-1,-1,-1,-1,-1,-1,-1,-1,-1,-1,-1,-1,-1,-1,-1,-1,-1,-1,-1,-1,-1],"split_conditions":[5.154E-1,4.91E-1,5.327E-1,1.83E-1,1.2E1,8E0,9E0,2E0,4E0,2.88E0,-1.9620923E-2,1.5E0,5.489E-1,5.261E-1,2.13E0,3E0,3E0,4.88E0,7E0,2.62E0,5E-1,1.12E0,2E0,1.5E0,5.901E-1,2E0,4.13E0,1.2177718E-2,3.2249154E-3,8.8E-1,5.12E0,2.12E0,8E0,3.8906E0,5.5E0,4.629E-1,8E0,6.2E-1,-1.6111348E-2,7.490226E-3,1.5887745E-2,-3.1027466E-3,1.38E0,7.5499574E-3,1.62E0,9.484474E-3,-1.2548529E-2,1.7545821E-2,-1.7396003E-3,5.9409947E-3,2.13E0,5.345E-1,-1.6521662E-4,-2.4635964E-3,2.797979E-4,-2.3702644E-3,1.2096152E-2,2.2902123E-3,2.06955E-4,-4.678398E-5,-4.976908E-4,4.4897525E-4,2.5103444E-3,1.6035777E-2,3.3574402E-3,-9.289359E-4,2.67283E-2,1.9038698E-3,1.3101372E-4,1.3409129E-2,4.4701193E-3,-1.6318254E-2,-3.992942E-3,-3.2407702E-3,1.0302768E-3,-1.3003078E-2,3.7085612E-3,-1.4567236E-2,-8.821509E-3],"split_indices":[2,2,3,2,5,5,5,5,5,0,0,0,2,2,0,3,5,0,5,0,2,0,5,0,2,0,0,0,0,0,0,0,5,4,0,2,5,0,0,0,0,0,0,0,0,0,0,0,0,0,0,2,0,0,0,0,0,0,0,0,0,0,0,0,0,0,0,0,0,0,0,0,0,0,0,0,0,0,0],"split_type":[0,0,0,0,0,0,0,0,0,0,0,0,0,0,0,0,0,0,0,0,0,0,0,0,0,0,0,0,0,0,0,0,0,0,0,0,0,0,0,0,0,0,0,0,0,0,0,0,0,0,0,0,0,0,0,0,0,0,0,0,0,0,0,0,0,0,0,0,0,0,0,0,0,0,0,0,0,0,0],"sum_hessian":[7.3132E4,7.3083E4,4.9E1,7.3047E4,3.6E1,1.6E1,3.3E1,4.8028E4,2.5019E4,3.5E1,1E0,9E0,7E0,3.1E1,2E0,1.816E3,4.6212E4,2.671E3,2.2348E4,2.7E1,8E0,5E0,4E0,3E0,4E0,5E0,2.6E1,1E0,1E0,1.31E3,5.06E2,1.851E3,4.4361E4,2.656E3,1.5E1,2.591E3,1.9757E4,2.6E1,1E0,4E0,4E0,2E0,3E0,2E0,2E0,2E0,1E0,3E0,1E0,1E0,4E0,2.5E1,1E0,3.39E2,9.71E2,5.01E2,5E0,9.01E2,9.5E2,3.8296E4,6.065E3,2.187E3,4.69E2,1.4E1,1E0,2.588E3,3E0,8.98E2,1.8859E4,4E0,2.2E1,2E0,1E0,1E0,1E0,2E0,2E0,6E0,1.9E1],"tree_param":{"num_deleted":"0","num_feature":"6","num_nodes":"79","size_leaf_vector":"1"}},{"base_weights":[5.1215766E-6,-1.7029251E-4,8.037467E-3,4.3870028E-4,-3.6355811E-3,6.3021076E-3,9.961469E-2,-3.5857523E-3,8.8654755E-4,-2.8055687E-2,-2.344769E-3,-3.0593842E-2,8.513043E-3,2.2098448E-2,4.2855505E-2,-1.8984059E-2,-2.624578E-3,2.4869934E-2,7.2299514E-4,2.2071205E-2,-3.290882E-2,1.0549493E-2,-3.8317668E-3,-4.4430923E-2,1.3389151E-1,3.0634892E-3,3.476365E-2,6.1204482E-2,-1.6206203E-2,-2.1791786E-2,6.3788067E-3,1.7292217E-3,-7.3905545E-3,9.075743E-2,1.2868482E-2,5.1800173E-4,8.736845E-3,6.074118E-2,-2.1310167E-1,-3.4011576E-2,1.5744235E-1,6.5412163E-3,7.783202E-2,-1.8491748E-3,-1.7583957E-2,-5.840432E-2,1.3997056E-1,1.5672995E-2,-1.5695543E-4,-3.8779184E-2,5.964437E-3,5.029448E-2,-1.2890542E-2,-2.3934424E-3,9.117974E-2,-1.3450546E-3,-5.846554E-3,1.0163592E-3,5.606806E-5,-5.745036E-4,-4.904288E-3,1.8566959E-3,1.2636407E-2,-4.3889484E-3,2.5043779E-3,9.71339E-5,-4.610438E-4,1.6249128E-3,-3.4297488E-3,1.0162259E-3,8.84642E-3,-2.3758227E-2,-3.3109025E-3,-4.355135E-4,-4.2032185E-3,2.559224E-3,2.1057129E-2,2.2242942E-3,1.5620726E-4,2.6719172E-2,5.920238E-3,-1.0285216E-3,4.17659E-5,1.0601478E-3,-2.7885418E-3,1.9270742E-2,-6.7795278E-3,2.4019254E-2,-4.031561E-3,-5.6158444E-3,1.4551878E-2,1.7172297E-3,-7.2277174E-4,4.182481E-3,1.8277692E-2,1.1901776E-2,-4.054633E-3,-7.1822706E-4,1.2760068E-2],"categories":[],"categories_nodes":[],"categories_segments":[],"categories_sizes":[],"default_left":[0,0,1,0,0,0,0,0,0,0,0,0,0,0,0,0,1,0,1,0,1,0,0,1,0,0,0,0,0,0,0,0,0,0,0,1,0,0,0,0,0,0,0,0,0,0,0,0,0,0,1,1,0,0,0,0,0,0,0,0,0,0,0,0,0,0,0,0,0,0,0,0,0,0,0,0,0,0,0,0,0,0,0,0,0,0,0,0,0,0,0,0,0,0,0,0,0,0,0],"id":10,"left_children":[1,3,5,7,9,11,13,15,17,19,21,23,25,-1,27,29,31,33,35,37,39,41,43,45,47,49,51,53,-1,55,-1,57,59,61,63,65,67,69,71,73,75,77,79,81,83,85,87,-1,-1,89,91,93,95,-1,97,-1,-1,-1,-1,-1,-1,-1,-1,-1,-1,-1,-1,-1,-1,-1,-1,-1,-1,-1,-1,-1,-1,-1,-1,-1,-1,-1,-1,-1,-1,-1,-1,-1,-1,-1,-1,-1,-1,-1,-1,-1,-1,-1,-1],"loss_changes":[1.0304477E-1,1.5104043E-1,2.4776325E-1,1.0971884E-1,3.371541E-1,1.254774E-1,1.9030619E-1,9.017376E-2,2.1485487E-1,1.313636E-1,1.9488397E-1,2.0396069E-1,2.0717889E-1,0E0,8.887948E-2,8.4589824E-2,1.19097635E-1,2.9219878E-1,8.937784E-2,4.4946223E-1,1.0821116E-1,2.8293192E-1,2.4840598E-1,2.1688873E-1,2.190204E-2,1.4601277E-1,1.8493551E-1,5.322355E-2,0E0,1.05362505E-1,0E0,2.9562026E-2,1.875169E-1,1.4417002E-1,2.1877837E-1,1.23348095E-1,4.3925652E-1,5.799344E-2,2.2978157E-2,1.1589402E-1,1.5626177E-2,7.759912E-2,1.9231614E-1,1.5231982E-1,3.3361876E-1,1.9228631E-1,1.1809533E-1,0E0,0E0,2.5800312E-1,1.6631405E-1,2.0330694E-1,2.3100348E-1,0E0,5.4653026E-2,0E0,0E0,0E0,0E0,0E0,0E0,0E0,0E0,0E0,0E0,0E0,0E0,0E0,0E0,0E0,0E0,0E0,0E0,0E0,0E0,0E0,0E0,0E0,0E0,0E0,0E0,0E0,0E0,0E0,0E0,0E0,0E0,0E0,0E0,0E0,0E0,0E0,0E0,0E0,0E0,0E0,0E0,0E0,0E0],"parents":[2147483647,0,0,1,1,2,2,3,3,4,4,5,5,6,6,7,7,8,8,9,9,10,10,11,11,12,12,14,14,15,15,16,16,17,17,18,18,19,19,20,20,21,21,22,22,23,23,24,24,25,25,26,26,27,27,29,29,31,31,32,32,33,33,34,34,35,35,36,36,37,37,38,38,39,39,40,40,41,41,42,42,43,43,44,44,45,45,46,46,49,49,50,50,51,51,52,52,54,54],"right_children":[2,4,6,8,10,12,14,16,18,20,22,24,26,-1,28,30,32,34,36,38,40,42,44,46,48,50,52,54,-1,56,-1,58,60,62,64,66,68,70,72,74,76,78,80,82,84,86,88,-1,-1,90,92,94,96,-1,98,-1,-1,-1,-1,-1,-1,-1,-1,-1,-1,-1,-1,-1,-1,-1,-1,-1,-1,-1,-1,-1,-1,-1,-1,-1,-1,-1,-1,-1,-1,-1,-1,-1,-1,-1,-1,-1,-1,-1,-1,-1,-1,-1,-1],"split_conditions":[4.13E0,3.74E0,1.2E1,5E-1,3.5E0,3.88E0,4.38E0,2E0,1.64E-2,4E0,3E0,5.12E0,1.89E-1,2.2098448E-2,5.25E0,1.64E-2,4E0,4E0,1.1E1,3.239E-1,1.2E1,4.3704E0,4.37E0,1.1E1,4.978E-1,2E0,5E0,1.25E-1,-1.6206203E-2,1.2E-1,6.3788067E-3,3E0,1.64E-2,2E0,7E0,8E0,2.266E-1,2E0,3E0,2.6809E0,3.38E0,3.63E0,4E0,7E0,7E0,2.5E-1,4.38E0,1.5672995E-2,-1.5695543E-4,5.12E0,5E0,1E1,5E0,-2.3934424E-3,4.5E0,-1.3450546E-3,-5.846554E-3,1.0163592E-3,5.606806E-5,-5.745036E-4,-4.904288E-3,1.8566959E-3,1.2636407E-2,-4.3889484E-3,2.5043779E-3,9.71339E-5,-4.610438E-4,1.6249128E-3,-3.4297488E-3,1.0162259E-3,8.84642E-3,-2.3758227E-2,-3.3109025E-3,-4.355135E-4,-4.2032185E-3,2.559224E-3,2.1057129E-2,2.2242942E-3,1.5620726E-4,2.6719172E-2,5.920238E-3,-1.0285216E-3,4.17659E-5,1.0601478E-3,-2.7885418E-3,1.9270742E-2,-6.7795278E-3,2.4019254E-2,-4.031561E-3,-5.6158444E-3,1.4551878E-2,1.7172297E-3,-7.2277174E-4,4.182481E-3,1.8277692E-2,1.1901776E-2,-4.054633E-3,-7.1822706E-4,1.2760068E-2],"split_indices":[0,4,5,0,0,3,0,5,3,5,5,4,2,0,0,3,5,5,5,2,5,4,4,5,2,5,0,2,0,0,0,5,3,5,5,5,2,5,5,3,0,0,0,5,5,2,0,0,0,0,5,5,5,0,0,0,0,0,0,0,0,0,0,0,0,0,0,0,0,0,0,0,0,0,0,0,0,0,0,0,0,0,0,0,0,0,0,0,0,0,0,0,0,0,0,0,0,0,0],"split_type":[0,0,0,0,0,0,0,0,0,0,0,0,0,0,0,0,0,0,0,0,0,0,0,0,0,0,0,0,0,0,0,0,0,0,0,0,0,0,0,0,0,0,0,0,0,0,0,0,0,0,0,0,0,0,0,0,0,0,0,0,0,0,0,0,0,0,0,0,0,0,0,0,0,0,0,0,0,0,0,0,0,0,0,0,0,0,0,0,0,0,0,0,0,0,0,0,0,0,0],"sum_hessian":[7.3132E4,7.157E4,1.562E3,6.0873E4,1.0697E4,1.534E3,2.8E1,6.095E3,5.4778E4,5.36E2,1.0161E4,8.6E1,1.448E3,8E0,2E1,3.57E2,5.738E3,3.7E2,5.4408E4,4.7E1,4.89E2,1.05E3,9.111E3,8E1,6E0,1.2E3,2.48E2,1.9E1,1E0,3.46E2,1.1E1,2.999E3,2.739E3,5.6E1,3.14E2,5.3052E4,1.356E3,4.1E1,6E0,4.87E2,2E0,9.92E2,5.8E1,7.964E3,1.147E3,7.5E1,5E0,5E0,1E0,7.7E1,1.123E3,1.87E2,6.1E1,5E0,1.4E1,2.83E2,6.3E1,3.64E2,2.635E3,2.636E3,1.03E2,1.9E1,3.7E1,5.5E1,2.59E2,4.8744E4,4.308E3,1.155E3,2.01E2,1.5E1,2.6E1,5E0,1E0,1.04E2,3.83E2,1E0,1E0,2.38E2,7.54E2,4E0,5.4E1,1.686E3,6.278E3,3.07E2,8.4E2,2E0,7.3E1,3E0,2E0,7.1E1,6E0,6.07E2,5.16E2,1.77E2,1E1,1E1,5.1E1,4E0,1E1],"tree_param":{"num_deleted":"0","num_feature":"6","num_nodes":"99","size_leaf_vector":"1"}},{"base_weights":[6.556129E-6,3.6742822E-5,-4.411686E-2,1.0684163E-5,5.1482584E-2,1.0539297E-2,-7.014738E-2,-7.885059E-4,1.5448284E-3,6.333771E-2,-1.8765096E-2,-4.6158914E-2,8.009465E-2,-8.3704926E-2,9.784887E-2,-7.9245195E-3,-5.0791545E-4,4.0617883E-3,-4.735997E-4,4.3310326E-2,1.1860761E-1,-1.05100006E-1,3.380218E-2,6.7129508E-3,1.22781076E-1,-3.2169696E-2,-9.6848E-2,1.1591884E-2,3.0854463E-3,-3.434881E-3,-1.951819E-2,1.0670102E-2,-9.7455765E-4,-8.630107E-4,1.0566439E-2,1.1549091E-2,-1.811875E-3,5.6255624E-2,-1.5310637E-2,6.6507417E-3,1.4698627E-2,-3.1708132E-3,-1.338689E-1,7.0401514E-3,-1.406454E-2,8.845699E-3,-1.1925958E-2,1.6176373E-2,-1.657477E-3,-9.242736E-2,9.906886E-3,-7.5496994E-2,-1.51876705E-2,-2.0166994E-3,2.4214487E-4,-4.647328E-3,-1.1402426E-3,2.018417E-3,1.635024E-4,-1.09904206E-4,1.538894E-3,-2.8674517E-4,1.7561831E-3,-2.7099366E-3,1.1308546E-3,1.0141708E-3,1.3186223E-2,-1.3387668E-3,-3.9812912E-5,9.6553955E-3,2.6871078E-3,-1.5317087E-2,-3.7981512E-3,-3.0835883E-3,9.739071E-4,-1.1495849E-2,-3.1576734E-3,-1.2535906E-2,-5.051903E-3],"categories":[],"categories_nodes":[],"categories_segments":[],"categories_sizes":[],"default_left":[0,0,0,0,1,0,1,0,0,0,0,0,0,0,0,0,0,0,0,0,0,0,0,0,0,0,0,0,0,0,0,0,0,0,0,0,0,0,0,0,0,0,0,0,0,0,0,0,0,0,0,0,0,0,0,0,0,0,0,0,0,0,0,0,0,0,0,0,0,0,0,0,0,0,0,0,0,0,0],"id":11,"left_children":[1,3,5,7,9,11,13,15,17,19,-1,21,23,25,27,29,31,33,35,37,39,41,43,45,47,49,51,-1,-1,53,55,57,59,61,63,65,67,69,-1,-1,-1,-1,71,-1,73,-1,-1,-1,-1,75,-1,77,-1,-1,-1,-1,-1,-1,-1,-1,-1,-1,-1,-1,-1,-1,-1,-1,-1,-1,-1,-1,-1,-1,-1,-1,-1,-1,-1],"loss_changes":[9.741039E-2,9.7976565E-2,7.187571E-2,8.9563385E-2,1.1677882E-1,7.0739366E-2,8.562939E-2,9.6164286E-2,1.2711108E-1,3.4711868E-2,0E0,5.068255E-2,2.4234992E-2,1.8559054E-2,5.5149198E-5,9.451033E-2,2.4106362E-1,3.5670877E-1,2.234421E-1,7.980794E-2,3.531143E-3,8.4236935E-3,9.749614E-3,5.1739354E-2,2.9843502E-2,7.24217E-2,1.7906696E-2,0E0,0E0,1.2851208E-1,1.1038199E-1,1.5916559E-1,9.038228E-2,2.3412225E-1,1.3442034E-1,2.341961E-1,2.0449457E-1,2.9377475E-2,0E0,0E0,0E0,0E0,1.5856028E-3,0E0,1.4979683E-3,0E0,0E0,0E0,0E0,4.5961887E-3,0E0,1.857604E-2,0E0,0E0,0E0,0E0,0E0,0E0,0E0,0E0,0E0,0E0,0E0,0E0,0E0,0E0,0E0,0E0,0E0,0E0,0E0,0E0,0E0,0E0,0E0,0E0,0E0,0E0,0E0],"parents":[2147483647,0,0,1,1,2,2,3,3,4,4,5,5,6,6,7,7,8,8,9,9,11,11,12,12,13,13,14,14,15,15,16,16,17,17,18,18,19,19,20,20,21,21,22,22,23,23,24,24,25,25,26,26,29,29,30,30,31,31,32,32,33,33,34,34,35,35,36,36,37,37,42,42,44,44,49,49,51,51],"right_children":[2,4,6,8,10,12,14,16,18,20,-1,22,24,26,28,30,32,34,36,38,40,42,44,46,48,50,52,-1,-1,54,56,58,60,62,64,66,68,70,-1,-1,-1,-1,72,-1,74,-1,-1,-1,-1,76,-1,78,-1,-1,-1,-1,-1,-1,-1,-1,-1,-1,-1,-1,-1,-1,-1,-1,-1,-1,-1,-1,-1,-1,-1,-1,-1,-1,-1],"split_conditions":[5.154E-1,4.91E-1,5.327E-1,1.83E-1,1.2E1,8E0,9E0,2E0,2.74E0,2.88E0,-1.8765096E-2,1.5E0,5.489E-1,2E0,2.13E0,3E0,3E0,2E0,4E0,2.62E0,5E-1,1.12E0,2E0,1.5E0,5.901E-1,1.88E0,5.669E-1,1.1591884E-2,3.0854463E-3,8.8E-1,3.12E0,2.12E0,4.88E0,3.239E-1,7.402E-1,4.88E0,7E0,4.978E-1,-1.5310637E-2,6.6507417E-3,1.4698627E-2,-3.1708132E-3,1.38E0,7.0401514E-3,1.62E0,8.845699E-3,-1.1925958E-2,1.6176373E-2,-1.657477E-3,5E0,9.906886E-3,2.13E0,-1.51876705E-2,-2.0166994E-3,2.4214487E-4,-4.647328E-3,-1.1402426E-3,2.018417E-3,1.635024E-4,-1.09904206E-4,1.538894E-3,-2.8674517E-4,1.7561831E-3,-2.7099366E-3,1.1308546E-3,1.0141708E-3,1.3186223E-2,-1.3387668E-3,-3.9812912E-5,9.6553955E-3,2.6871078E-3,-1.5317087E-2,-3.7981512E-3,-3.0835883E-3,9.739071E-4,-1.1495849E-2,-3.1576734E-3,-1.2535906E-2,-5.051903E-3],"split_indices":[2,2,3,2,5,5,5,5,4,0,0,0,2,0,0,3,5,4,5,0,2,0,5,0,2,0,2,0,0,0,0,0,0,2,3,0,5,2,0,0,0,0,0,0,0,0,0,0,0,5,0,0,0,0,0,0,0,0,0,0,0,0,0,0,0,0,0,0,0,0,0,0,0,0,0,0,0,0,0],"split_type":[0,0,0,0,0,0,0,0,0,0,0,0,0,0,0,0,0,0,0,0,0,0,0,0,0,0,0,0,0,0,0,0,0,0,0,0,0,0,0,0,0,0,0,0,0,0,0,0,0,0,0,0,0,0,0,0,0,0,0,0,0,0,0,0,0,0,0,0,0,0,0,0,0,0,0,0,0,0,0],"sum_hessian":[7.3132E4,7.3083E4,4.9E1,7.3047E4,3.6E1,1.6E1,3.3E1,4.8028E4,2.5019E4,3.5E1,1E0,9E0,7E0,3.1E1,2E0,1.816E3,4.6212E4,1.1134E4,1.3885E4,2.7E1,8E0,5E0,4E0,3E0,4E0,7E0,2.4E1,1E0,1E0,1.31E3,5.06E2,1.851E3,4.4361E4,6.337E3,4.797E3,1.39E3,1.2495E4,2.6E1,1E0,4E0,4E0,2E0,3E0,2E0,2E0,2E0,1E0,3E0,1E0,5E0,2E0,1.9E1,5E0,3.39E2,9.71E2,1.16E2,3.9E2,9.01E2,9.5E2,4.4027E4,3.34E2,5.716E3,6.21E2,9.2E1,4.705E3,1.375E3,1.5E1,1.359E3,1.1136E4,1E1,1.6E1,2E0,1E0,1E0,1E0,3E0,2E0,5E0,1.4E1],"tree_param":{"num_deleted":"0","num_feature":"6","num_nodes":"79","size_leaf_vector":"1"}},{"base_weights":[5.6261933E-6,3.3187574E-5,-4.0280405E-2,9.740093E-6,4.632395E-2,-1.1346307E-2,-8.311424E-2,-1.4035265E-4,6.883424E-3,5.751453E-2,-1.782684E-2,-2.7308997E-2,1.4674181E-2,-1.4791663E-1,-5.7668846E-2,2.0899276E-4,-5.012461E-3,5.3102183E-3,8.980898E-2,3.887329E-2,1.09119E-1,-6.798659E-2,5.403808E-3,-4.2053536E-3,-1.6386902E-2,-6.811872E-3,-8.016639E-2,-3.7850728E-3,5.0654024E-4,5.348463E-3,-6.393221E-3,1.4422006E-2,-3.643618E-3,2.0143135E-2,3.76942E-2,5.108719E-2,-1.45451045E-2,6.1186813E-3,1.3522739E-2,-2.4637507E-2,-1.016233E-2,8.304454E-3,-1.7165245E-2,-5.093079E-2,5.4283976E-3,-1.7986113E-2,-3.8027436E-2,-2.1312552E-4,-2.2687102E-3,3.9440874E-4,-6.1651403E-6,-2.2995507E-4,2.80394E-3,-3.8507718E-4,-1.7327945E-3,6.1806035E-4,4.734696E-3,-1.7730555E-3,9.98777E-4,5.4972814E-3,-1.5393901E-2,3.7482218E-3,1.4743288E-2,-7.7749654E-3,3.4634017E-3,-1.4441862E-2,1.6078532E-3,-8.511317E-3,-1.1165609E-3,3.961598E-3,-6.5870695E-3],"categories":[],"categories_nodes":[],"categories_segments":[],"categories_sizes":[],"default_left":[0,0,0,0,1,1,0,0,1,0,0,0,0,0,0,0,0,0,0,0,0,0,0,0,0,0,0,1,0,0,0,0,0,0,0,1,0,0,0,0,0,0,0,0,0,0,0,0,0,0,0,0,0,0,0,0,0,0,0,0,0,0,0,0,0,0,0,0,0,0,0],"id":12,"left_children":[1,3,5,7,9,11,13,15,17,19,-1,21,-1,23,25,27,29,31,33,35,37,39,41,-1,-1,43,45,47,49,51,53,55,57,-1,59,61,-1,-1,-1,63,-1,-1,65,67,-1,-1,69,-1,-1,-1,-1,-1,-1,-1,-1,-1,-1,-1,-1,-1,-1,-1,-1,-1,-1,-1,-1,-1,-1,-1,-1],"loss_changes":[8.120372E-2,7.932504E-2,6.1024874E-2,7.536387E-2,1.0324579E-1,8.223624E-2,2.4448276E-2,1.216771E-1,2.0316952E-1,3.0389152E-2,0E0,3.8957052E-2,0E0,1.5525669E-3,1.776043E-2,7.927695E-2,6.8459556E-2,1.2512305E-1,1.6110528E-1,7.046763E-2,2.9887557E-3,1.645182E-2,3.1214206E-2,0E0,0E0,1.8937623E-2,3.93717E-2,1.445315E-1,1.21257916E-1,9.776784E-2,1.1728118E-1,2.0593168E-1,1.4880404E-1,0E0,7.799673E-2,2.9864967E-2,0E0,0E0,0E0,2.4729049E-2,0E0,0E0,6.1547395E-2,4.486733E-3,0E0,0E0,2.2066144E-2,0E0,0E0,0E0,0E0,0E0,0E0,0E0,0E0,0E0,0E0,0E0,0E0,0E0,0E0,0E0,0E0,0E0,0E0,0E0,0E0,0E0,0E0,0E0,0E0],"parents":[2147483647,0,0,1,1,2,2,3,3,4,4,5,5,6,6,7,7,8,8,9,9,11,11,13,13,14,14,15,15,16,16,17,17,18,18,19,19,20,20,21,21,22,22,25,25,26,26,27,27,28,28,29,29,30,30,31,31,32,32,34,34,35,35,39,39,42,42,43,43,46,46],"right_children":[2,4,6,8,10,12,14,16,18,20,-1,22,-1,24,26,28,30,32,34,36,38,40,42,-1,-1,44,46,48,50,52,54,56,58,-1,60,62,-1,-1,-1,64,-1,-1,66,68,-1,-1,70,-1,-1,-1,-1,-1,-1,-1,-1,-1,-1,-1,-1,-1,-1,-1,-1,-1,-1,-1,-1,-1,-1,-1,-1],"split_conditions":[5.154E-1,4.91E-1,3.24E0,4.13E0,1.2E1,8E0,1.26E0,3.63E0,1.2E1,2.88E0,-1.782684E-2,5E0,1.4674181E-2,7E0,2.62E0,1.2E-1,3E0,4.26E0,4.38E0,2.62E0,5E-1,2.5691E0,2.4533E0,-4.2053536E-3,-1.6386902E-2,2.5E0,3.12E0,1E1,1.4533E0,4.12E0,4.12E0,4.5E0,8E0,2.0143135E-2,5.25E0,7E0,-1.45451045E-2,6.1186813E-3,1.3522739E-2,1.38E0,-1.016233E-2,8.304454E-3,2.6553E0,5.345E-1,5.4283976E-3,-1.7986113E-2,2.1094E0,-2.1312552E-4,-2.2687102E-3,3.9440874E-4,-6.1651403E-6,-2.2995507E-4,2.80394E-3,-3.8507718E-4,-1.7327945E-3,6.1806035E-4,4.734696E-3,-1.7730555E-3,9.98777E-4,5.4972814E-3,-1.5393901E-2,3.7482218E-3,1.4743288E-2,-7.7749654E-3,3.4634017E-3,-1.4441862E-2,1.6078532E-3,-8.511317E-3,-1.1165609E-3,3.961598E-3,-6.5870695E-3],"split_indices":[2,2,4,0,5,5,3,3,5,0,0,5,0,5,0,0,5,3,0,0,2,4,4,0,0,0,0,5,4,0,0,0,5,0,0,5,0,0,0,0,0,0,4,2,0,0,3,0,0,0,0,0,0,0,0,0,0,0,0,0,0,0,0,0,0,0,0,0,0,0,0],"split_type":[0,0,0,0,0,0,0,0,0,0,0,0,0,0,0,0,0,0,0,0,0,0,0,0,0,0,0,0,0,0,0,0,0,0,0,0,0,0,0,0,0,0,0,0,0,0,0,0,0,0,0,0,0,0,0,0,0,0,0,0,0,0,0,0,0,0,0,0,0,0,0],"sum_hessian":[7.3132E4,7.3083E4,4.9E1,7.3047E4,3.6E1,3E1,1.9E1,7.1487E4,1.56E3,3.5E1,1E0,2.8E1,2E0,4E0,1.5E1,6.6705E4,4.782E3,1.532E3,2.8E1,2.7E1,8E0,1.2E1,1.6E1,1E0,3E0,5E0,1E1,4.624E3,6.2081E4,5.62E2,4.22E3,7.59E2,7.73E2,8E0,2E1,2.6E1,1E0,4E0,4E0,6E0,6E0,3E0,1.3E1,3E0,2E0,2E0,8E0,4.253E3,3.71E2,8.805E3,5.3276E4,4.21E2,1.41E2,3.425E3,7.95E2,6.08E2,1.51E2,3.8E2,3.93E2,1.9E1,1E0,2.4E1,2E0,3E0,3E0,2E0,1.1E1,1E0,2E0,2E0,6E0],"tree_param":{"num_deleted":"0","num_feature":"6","num_nodes":"71","size_leaf_vector":"1"}},{"base_weights":[4.6325267E-6,-6.7578374E-5,1.3168179E-2,8.5585704E-4,-1.1358085E-3,2.8603273E-2,-7.5792153E-3,-6.1732455E-4,2.753094E-3,-1.0035828E-3,-3.217964E-2,-4.8786093E-2,3.706391E-2,7.884455E-2,-2.2917837E-2,-1.3242327E-3,1.8180458E-2,2.2657823E-2,2.4567817E-3,-1.0831906E-3,6.1113745E-2,-3.7249662E-2,2.1683795E-2,1.137386E-2,-6.1343513E-2,3.1109504E-2,1.0178319E-1,6.433915E-2,1.2689938E-1,-1.7997751E-2,-1.930814E-2,6.0587766E-4,-4.6709655E-3,6.1994307E-2,7.489131E-3,-8.413292E-2,3.4897383E-2,1.6509211E-3,8.194771E-3,-8.609844E-4,-1.6418258E-2,1.0462395E-1,-1.1488302E-1,6.3973265E-3,-5.4000936E-2,-4.5439232E-2,-1.9766672E-2,1.7031018E-2,6.744535E-2,1.3327797E-1,-4.5984983E-4,4.8651285E-2,1.2277174E-2,1.4850512E-2,2.0238191E-3,-2.6872769E-2,6.569869E-2,-5.9418875E-5,1.2601132E-3,-2.7259742E-3,-3.3519283E-4,1.8736789E-3,9.8849125E-3,1.0047153E-3,-2.2562997E-2,-2.0577827E-2,-5.931925E-3,3.018984E-3,1.771909E-2,2.1691571E-3,1.2215726E-4,1.1082505E-3,-4.4341586E-3,2.6261937E-4,-1.9345542E-4,-3.9116866E-3,1.0481997E-3,-1.0327963E-2,1.2734241E-2,-1.6492198E-3,-1.4063867E-2,8.233376E-3,-4.2457883E-3,-1.2969181E-2,-2.215536E-3,-5.7033473E-3,4.313737E-3,6.923807E-3,5.5335625E-4,8.125986E-3,3.341111E-3,1.7360335E-2,5.7297777E-3,-5.390309E-3,2.6376732E-3,6.803E-3,3.1677869E-3,-1.0517351E-3,-7.876532E-3,-1.5399086E-2,2.0485854E-2],"categories":[],"categories_nodes":[],"categories_segments":[],"categories_sizes":[],"default_left":[0,0,0,0,0,0,0,0,0,0,1,0,0,0,0,0,0,0,1,0,1,0,0,0,0,1,0,0,0,0,0,0,0,0,1,0,1,0,0,0,0,0,0,0,0,0,0,0,0,1,0,0,0,0,0,0,0,0,0,0,0,0,0,0,0,0,0,0,0,0,0,0,0,0,0,0,0,0,0,0,0,0,0,0,0,0,0,0,0,0,0,0,0,0,0,0,0,0,0,0,0],"id":13,"left_children":[1,3,5,7,9,11,13,15,17,19,21,23,25,27,29,31,33,35,37,39,41,43,-1,-1,45,47,49,51,53,55,-1,57,59,61,63,65,67,69,71,73,75,77,79,81,83,85,-1,87,89,91,93,95,-1,-1,-1,97,99,-1,-1,-1,-1,-1,-1,-1,-1,-1,-1,-1,-1,-1,-1,-1,-1,-1,-1,-1,-1,-1,-1,-1,-1,-1,-1,-1,-1,-1,-1,-1,-1,-1,-1,-1,-1,-1,-1,-1,-1,-1,-1,-1,-1],"loss_changes":[6.9517575E-2,7.17498E-2,1.2799174E-1,1.0903924E-1,1.3839772E-1,1.5174903E-1,2.2848819E-1,2.9184854E-1,1.0051729E-1,1.6612972E-1,1.8861821E-1,5.391762E-2,7.660413E-2,9.958819E-3,1.1875898E-1,1.3672598E-1,3.724046E-1,3.29704E-1,7.7683866E-2,1.1427499E-1,3.412987E-1,1.0343659E-1,0E0,0E0,3.8716882E-2,9.6558094E-2,5.4803357E-2,1.4194019E-2,8.516997E-3,1.0798699E-1,0E0,1.9326171E-1,2.3058492E-1,2.4685049E-1,3.845106E-1,6.627354E-2,1.4536753E-1,1.2675971E-1,3.1438136E-1,1.2378026E-1,2.928866E-1,1.7846555E-1,2.0487621E-2,1.5189132E-1,2.4298942E-1,2.4026822E-2,0E0,8.305137E-2,2.2203833E-2,2.988401E-2,8.592957E-3,4.0944926E-3,0E0,0E0,0E0,1.0950577E-1,4.595539E-1,0E0,0E0,0E0,0E0,0E0,0E0,0E0,0E0,0E0,0E0,0E0,0E0,0E0,0E0,0E0,0E0,0E0,0E0,0E0,0E0,0E0,0E0,0E0,0E0,0E0,0E0,0E0,0E0,0E0,0E0,0E0,0E0,0E0,0E0,0E0,0E0,0E0,0E0,0E0,0E0,0E0,0E0,0E0,0E0],"parents":[2147483647,0,0,1,1,2,2,3,3,4,4,5,5,6,6,7,7,8,8,9,9,10,10,11,11,12,12,13,13,14,14,15,15,16,16,17,17,18,18,19,19,20,20,21,21,24,24,25,25,26,26,27,27,28,28,29,29,31,31,32,32,33,33,34,34,35,35,36,36,37,37,38,38,39,39,40,40,41,41,42,42,43,43,44,44,45,45,47,47,48,48,49,49,50,50,51,51,55,55,56,56],"right_children":[2,4,6,8,10,12,14,16,18,20,22,24,26,28,30,32,34,36,38,40,42,44,-1,-1,46,48,50,52,54,56,-1,58,60,62,64,66,68,70,72,74,76,78,80,82,84,86,-1,88,90,92,94,96,-1,-1,-1,98,100,-1,-1,-1,-1,-1,-1,-1,-1,-1,-1,-1,-1,-1,-1,-1,-1,-1,-1,-1,-1,-1,-1,-1,-1,-1,-1,-1,-1,-1,-1,-1,-1,-1,-1,-1,-1,-1,-1,-1,-1,-1,-1,-1,-1],"split_conditions":[5.12E0,3E0,5E0,2.0238E0,3.981E-1,2E0,4E0,3.239E-1,2.0708E0,3.78E-1,1E1,4.75E0,2.673E-1,5.38E0,6.12E0,1.5238E0,1.4533E0,1.38E0,7E0,3.134E-1,7E0,3.24E0,2.1683795E-2,1.137386E-2,2.631E-1,7E0,4.629E-1,2.266E-1,1.89E-1,5.62E0,-1.930814E-2,1.3642E0,1.13E0,1E1,1.2E1,6E0,1.1E1,9.762E-1,3.273E-1,8E0,3.273E-1,3E0,8E0,1E1,1E1,1.637E-1,-1.9766672E-2,3E0,1E1,5E0,4.13E0,2E0,1.2277174E-2,1.4850512E-2,2.0238191E-3,5.38E0,1.2E1,-5.9418875E-5,1.2601132E-3,-2.7259742E-3,-3.3519283E-4,1.8736789E-3,9.8849125E-3,1.0047153E-3,-2.2562997E-2,-2.0577827E-2,-5.931925E-3,3.018984E-3,1.771909E-2,2.1691571E-3,1.2215726E-4,1.1082505E-3,-4.4341586E-3,2.6261937E-4,-1.9345542E-4,-3.9116866E-3,1.0481997E-3,-1.0327963E-2,1.2734241E-2,-1.6492198E-3,-1.4063867E-2,8.233376E-3,-4.2457883E-3,-1.2969181E-2,-2.215536E-3,-5.7033473E-3,4.313737E-3,6.923807E-3,5.5335625E-4,8.125986E-3,3.341111E-3,1.7360335E-2,5.7297777E-3,-5.390309E-3,2.6376732E-3,6.803E-3,3.1677869E-3,-1.0517351E-3,-7.876532E-3,-1.5399086E-2,2.0485854E-2],"split_indices":[4,4,0,4,2,5,5,2,4,2,5,0,2,0,4,4,4,0,5,2,5,4,0,0,2,5,2,2,2,0,0,4,0,5,5,5,5,3,2,5,2,5,5,5,5,2,0,5,5,5,0,5,0,0,0,0,5,0,0,0,0,0,0,0,0,0,0,0,0,0,0,0,0,0,0,0,0,0,0,0,0,0,0,0,0,0,0,0,0,0,0,0,0,0,0,0,0,0,0,0,0],"split_type":[0,0,0,0,0,0,0,0,0,0,0,0,0,0,0,0,0,0,0,0,0,0,0,0,0,0,0,0,0,0,0,0,0,0,0,0,0,0,0,0,0,0,0,0,0,0,0,0,0,0,0,0,0,0,0,0,0,0,0,0,0,0,0,0,0,0,0,0,0,0,0,0,0,0,0,0,0,0,0,0,0,0,0,0,0,0,0,0,0,0,0,0,0,0,0,0,0,0,0,0,0],"sum_hessian":[7.3132E4,7.2734E4,3.98E2,3.9011E4,3.3723E4,2.28E2,1.7E2,2.196E4,1.7051E4,3.3581E4,1.42E2,2.2E1,2.06E2,2.5E1,1.45E2,2.1165E4,7.95E2,2.49E2,1.6802E4,3.3539E4,4.2E1,1.4E2,2E0,1E0,2.1E1,1.9E2,1.6E1,2.1E1,4E0,1.42E2,3E0,1.3424E4,7.741E3,1.55E2,6.4E2,2.5E1,2.24E2,1.4734E4,2.068E3,3.3061E4,4.78E2,3.4E1,8E0,3.9E1,1.01E2,2E1,1E0,1.38E2,5.2E1,1.2E1,4E0,1.8E1,3E0,3E0,1E0,1.29E2,1.3E1,1.2204E4,1.22E3,4.26E2,7.315E3,7.2E1,8.3E1,6.34E2,6E0,3E0,2.2E1,2.18E2,6E0,3.08E2,1.4426E4,1.961E3,1.07E2,7.782E3,2.5279E4,2.59E2,2.19E2,3E0,3.1E1,2E0,6E0,1.5E1,2.4E1,2.9E1,7.2E1,1.8E1,2E0,2.4E1,1.14E2,3.6E1,1.6E1,7E0,5E0,1E0,3E0,7E0,1.1E1,9.9E1,3E1,5E0,8E0],"tree_param":{"num_deleted":"0","num_feature":"6","num_nodes":"101","size_leaf_vector":"1"}},{"base_weights":[4.4703274E-6,2.9488652E-5,-3.6564406E-2,7.890737E-6,4.2668816E-2,8.386391E-3,-5.7964377E-2,1.7624417E-6,1.4922108E-2,5.263592E-2,-1.580735E-2,-4.0860936E-2,6.889725E-2,-6.986744E-2,8.832309E-3,2.8431197E-5,-3.972819E-2,3.4562957E-2,1.0301448E-1,-9.082917E-2,2.7273137E-2,3.1029657E-3,1.0775323E-1,-1.8303575E-2,-7.87384E-2,-5.7593395E-5,1.8091774E-2,1.1758431E-1,-5.6324508E-2,4.5996454E-2,-1.3707072E-2,4.060616E-2,1.1504455E-2,-2.5468906E-3,-1.1714208E-1,6.195307E-3,-1.6497841E-2,7.557746E-2,-1.0716026E-2,1.6667008E-2,1.2918632E-2,-5.8885965E-2,4.190747E-2,-8.19983E-2,3.0095727E-4,-1.0282255E-4,9.1239934E-5,1.2722975E-3,9.6581215E-3,1.3736725E-2,1.9226283E-3,-4.3019676E-3,-2.2825228E-2,3.3026505E-3,1.387472E-2,5.9966743E-4,5.4912567E-3,-1.34798875E-2,-3.208585E-3,-3.2110363E-3,7.3636026E-4,2.2259713E-3,9.110647E-3,3.701249E-3,-1.763454E-3,4.9548955E-3,-1.1154725E-2,1.0058278E-2,-3.7721575E-3,-1.222448E-2,-6.3812113E-3],"categories":[],"categories_nodes":[],"categories_segments":[],"categories_sizes":[],"default_left":[0,0,0,0,1,0,1,0,0,0,0,0,0,0,0,0,0,0,0,0,0,0,0,0,0,0,0,0,1,1,0,0,0,0,0,0,0,0,0,0,0,0,0,0,0,0,0,0,0,0,0,0,0,0,0,0,0,0,0,0,0,0,0,0,0,0,0,0,0,0,0],"id":14,"left_children":[1,3,5,7,9,11,13,15,-1,17,-1,19,21,23,-1,25,27,29,31,33,35,37,39,41,43,45,47,49,51,53,-1,55,-1,-1,57,-1,59,61,-1,-1,63,65,67,69,-1,-1,-1,-1,-1,-1,-1,-1,-1,-1,-1,-1,-1,-1,-1,-1,-1,-1,-1,-1,-1,-1,-1,-1,-1,-1,-1],"loss_changes":[6.690987E-2,6.730422E-2,4.858341E-2,6.679646E-2,8.2350664E-2,5.3475175E-2,6.537405E-2,7.739691E-2,0E0,2.9217146E-2,0E0,3.652259E-2,2.0117655E-2,1.3196275E-2,0E0,1.1343202E-1,1.3455248E-1,6.1251204E-2,2.0854697E-3,7.335432E-3,8.611964E-3,4.0063985E-2,2.5783628E-2,1.712881E-2,7.4420273E-3,6.840418E-2,1.4457348E-1,7.087998E-3,9.3116805E-2,2.7897917E-2,0E0,1.1561196E-3,0E0,0E0,1.6821437E-3,0E0,1.3540599E-3,4.5591407E-4,0E0,0E0,2.8611294E-3,2.8368343E-2,1.7810918E-2,1.1229485E-2,0E0,0E0,0E0,0E0,0E0,0E0,0E0,0E0,0E0,0E0,0E0,0E0,0E0,0E0,0E0,0E0,0E0,0E0,0E0,0E0,0E0,0E0,0E0,0E0,0E0,0E0,0E0],"parents":[2147483647,0,0,1,1,2,2,3,3,4,4,5,5,6,6,7,7,9,9,11,11,12,12,13,13,15,15,16,16,17,17,18,18,19,19,20,20,21,21,22,22,23,23,24,24,25,25,26,26,27,27,28,28,29,29,31,31,34,34,36,36,37,37,40,40,41,41,42,42,43,43],"right_children":[2,4,6,8,10,12,14,16,-1,18,-1,20,22,24,-1,26,28,30,32,34,36,38,40,42,44,46,48,50,52,54,-1,56,-1,-1,58,-1,60,62,-1,-1,64,66,68,70,-1,-1,-1,-1,-1,-1,-1,-1,-1,-1,-1,-1,-1,-1,-1,-1,-1,-1,-1,-1,-1,-1,-1,-1,-1,-1,-1],"split_conditions":[5.154E-1,4.91E-1,5.327E-1,6E0,1.2E1,8E0,9E0,5.38E0,1.4922108E-2,2.88E0,-1.580735E-2,1.5E0,5.489E-1,5.261E-1,8.832309E-3,5.12E0,4E0,2.62E0,4.978E-1,1.12E0,2E0,1.5E0,5.669E-1,2.13E0,4.13E0,1.637E-1,2.95E-1,1.89E-1,1.1E1,7E0,-1.3707072E-2,3.88E0,1.1504455E-2,-2.5468906E-3,1.38E0,6.195307E-3,1.62E0,1.38E0,-1.0716026E-2,1.6667008E-2,1.13E0,2E0,2.25E0,5.345E-1,3.0095727E-4,-1.0282255E-4,9.1239934E-5,1.2722975E-3,9.6581215E-3,1.3736725E-2,1.9226283E-3,-4.3019676E-3,-2.2825228E-2,3.3026505E-3,1.387472E-2,5.9966743E-4,5.4912567E-3,-1.34798875E-2,-3.208585E-3,-3.2110363E-3,7.3636026E-4,2.2259713E-3,9.110647E-3,3.701249E-3,-1.763454E-3,4.9548955E-3,-1.1154725E-2,1.0058278E-2,-3.7721575E-3,-1.222448E-2,-6.3812113E-3],"split_indices":[2,2,3,0,5,5,5,0,0,0,0,0,2,2,0,4,5,0,2,0,5,0,2,0,0,2,2,2,5,5,0,0,0,0,0,0,0,0,0,0,0,0,0,2,0,0,0,0,0,0,0,0,0,0,0,0,0,0,0,0,0,0,0,0,0,0,0,0,0,0,0],"split_type":[0,0,0,0,0,0,0,0,0,0,0,0,0,0,0,0,0,0,0,0,0,0,0,0,0,0,0,0,0,0,0,0,0,0,0,0,0,0,0,0,0,0,0,0,0,0,0,0,0,0,0,0,0,0,0,0,0,0,0,0,0,0,0,0,0,0,0,0,0,0,0],"sum_hessian":[7.3132E4,7.3083E4,4.9E1,7.3047E4,3.6E1,1.6E1,3.3E1,7.3045E4,2E0,3.5E1,1E0,9E0,7E0,3.1E1,2E0,7.2997E4,4.8E1,2.7E1,8E0,5E0,4E0,3E0,4E0,5E0,2.6E1,7.2652E4,3.45E2,4E0,4.4E1,2.6E1,1E0,2E0,6E0,2E0,3E0,2E0,2E0,2E0,1E0,2E0,2E0,3E0,2E0,2.5E1,1E0,3.6314E4,3.6338E4,3.24E2,2.1E1,3E0,1E0,4.2E1,2E0,2.4E1,2E0,1E0,1E0,2E0,1E0,1E0,1E0,1E0,1E0,1E0,1E0,1E0,2E0,1E0,1E0,6E0,1.9E1],"tree_param":{"num_deleted":"0","num_feature":"6","num_nodes":"71","size_leaf_vector":"1"}},{"base_weights":[4.2044558E-6,-1.508725E-6,1.39273E-2,2.2620123E-5,-3.5989407E-2,-5.5070795E-5,1.6214099E-2,1.0895775E-1,-5.1294886E-2,1.7838134E-5,-1.2489352E-2,1.1454575E-2,7.743935E-2,1.2706471E-2,1.826498E-3,-3.8817756E-2,-2.1303546E-2,-5.3681488E-5,4.1320562E-2,-3.647501E-2,1.1442332E-2,9.630711E-3,9.29343E-2,-2.2088641E-2,9.744891E-2,-1.18036136E-1,-4.3449574E-3,3.164385E-5,-2.7329265E-4,2.7868345E-3,1.9323424E-2,-1.3448378E-3,-6.6363565E-3,2.7516831E-3,-3.5235628E-3,1.8353624E-3,-6.216227E-4,-7.517408E-3,1.3348139E-2,-1.9261247E-2,6.869543E-3,1.30355675E-2,5.5683153E-3,-1.6850153E-2,-3.5912066E-4,1.0071996E-3,-2.1842679E-2],"categories":[],"categories_nodes":[],"categories_segments":[],"categories_sizes":[],"default_left":[0,0,0,0,0,0,0,0,1,0,0,1,0,0,0,0,0,1,1,0,0,0,0,0,0,0,0,0,0,0,0,0,0,0,0,0,0,0,0,0,0,0,0,0,0,0,0],"id":15,"left_children":[1,3,-1,5,7,9,11,13,15,17,19,21,23,-1,-1,25,-1,27,29,31,33,35,37,39,41,43,45,-1,-1,-1,-1,-1,-1,-1,-1,-1,-1,-1,-1,-1,-1,-1,-1,-1,-1,-1,-1],"loss_changes":[5.8189787E-2,6.350387E-2,0E0,9.193425E-2,1.1429477E-1,6.59396E-2,1.0081267E-1,5.8900192E-3,8.2543045E-2,2.1360862E-1,2.4380063E-1,4.7402572E-2,5.1940277E-2,0E0,0E0,1.1691494E-1,0E0,7.158551E-2,2.500619E-1,1.4501289E-1,1.6078877E-1,4.420992E-2,5.7748467E-2,9.063582E-2,2.1603286E-2,7.4476495E-2,9.7878635E-2,0E0,0E0,0E0,0E0,0E0,0E0,0E0,0E0,0E0,0E0,0E0,0E0,0E0,0E0,0E0,0E0,0E0,0E0,0E0,0E0],"parents":[2147483647,0,0,1,1,3,3,4,4,5,5,6,6,7,7,8,8,9,9,10,10,11,11,12,12,15,15,17,17,18,18,19,19,20,20,21,21,22,22,23,23,24,24,25,25,26,26],"right_children":[2,4,-1,6,8,10,12,14,16,18,20,22,24,-1,-1,26,-1,28,30,32,34,36,38,40,42,44,46,-1,-1,-1,-1,-1,-1,-1,-1,-1,-1,-1,-1,-1,-1,-1,-1,-1,-1,-1,-1],"split_conditions":[6E0,5.38E0,1.39273E-2,5.12E0,4E0,4.62E0,2.95E-1,1.89E-1,1.1E1,4.5E0,8E0,1.2E1,3E0,1.2706471E-2,1.826498E-3,8E0,-2.1303546E-2,8E0,1E1,5E0,5.0238E0,5E0,4.75E0,3.239E-1,3.504E-1,1.89E-1,2.95E-1,3.164385E-5,-2.7329265E-4,2.7868345E-3,1.9323424E-2,-1.3448378E-3,-6.6363565E-3,2.7516831E-3,-3.5235628E-3,1.8353624E-3,-6.216227E-4,-7.517408E-3,1.3348139E-2,-1.9261247E-2,6.869543E-3,1.30355675E-2,5.5683153E-3,-1.6850153E-2,-3.5912066E-4,1.0071996E-3,-2.1842679E-2],"split_indices":[0,0,0,4,5,0,2,2,5,0,5,5,5,0,0,5,0,5,5,5,4,0,0,2,2,2,2,0,0,0,0,0,0,0,0,0,0,0,0,0,0,0,0,0,0,0,0],"split_type":[0,0,0,0,0,0,0,0,0,0,0,0,0,0,0,0,0,0,0,0,0,0,0,0,0,0,0,0,0,0,0,0,0,0,0,0,0,0,0,0,0,0,0,0,0,0,0],"sum_hessian":[7.3132E4,7.313E4,2E0,7.3082E4,4.8E1,7.2734E4,3.48E2,4E0,4.4E1,7.2311E4,4.23E2,3.24E2,2.4E1,3E0,1E0,4.2E1,2E0,7.2187E4,1.24E2,2.11E2,2.12E2,3.18E2,6E0,4E0,2E1,1.2E1,3E1,6.3426E4,8.761E3,1.15E2,9E0,1.2E2,9.1E1,1.58E2,5.4E1,2.05E2,1.13E2,1E0,5E0,1E0,3E0,1E1,1E1,8E0,4E0,2.9E1,1E0],"tree_param":{"num_deleted":"0","num_feature":"6","num_nodes":"47","size_leaf_vector":"1"}},{"base_weights":[3.7167297E-6,-4.4424124E-3,1.7559595E-4,-5.9693726E-3,4.2430107E-2,7.2180997E-3,-1.1193226E-4,-2.272292E-2,-2.3346234E-3,5.75531E-2,-7.825998E-2,7.560665E-3,-1.8318427E-1,4.1577913E-4,-2.8362356E-3,-1.3784386E-2,-5.2918278E-2,1.29972575E-2,-3.0079526E-3,4.508754E-2,1.3656363E-1,-1.6776832E-2,-2.161284E-2,6.506927E-3,1.7707759E-1,-2.3486486E-2,-7.044227E-3,-1.6784902E-3,1.2643914E-3,-1.5313436E-2,-7.74058E-4,-1.6911699E-2,4.0850963E-2,-7.734028E-2,5.0778516E-2,1.5972421E-3,-6.3090464E-3,1.01605706E-1,2.2708884E-2,2.1712368E-2,1.2578845E-2,-8.805218E-3,2.1656983E-2,7.3298393E-3,-7.973765E-2,2.3086883E-2,6.725168E-2,-9.835873E-3,-7.8393845E-4,1.2295773E-2,8.94036E-4,-2.5155483E-2,-1.11762285E-2,7.7142655E-3,-2.5837515E-3,-9.7581215E-4,-4.940693E-3,5.778394E-3,1.3734665E-3,-1.0265813E-2,-4.354759E-3,-4.5011635E-3,6.924419E-3,-3.1759252E-3,-3.0086766E-4,2.0570487E-3,1.3742424E-2,-2.9236055E-3,5.284154E-3,-2.1170711E-2,1.2157711E-2,4.2808126E-3,-4.2049373E-3,1.4914216E-3,1.0275724E-4,-1.865632E-2,1.1038642E-3,-1.0957473E-2,1.5989719E-2,-7.874622E-4,-1.5853273E-3,6.221714E-5,-7.50944E-4,2.311915E-3,-8.5811625E-4,5.1894796E-4,4.672134E-5,1.008193E-2,-2.8754852E-3,-6.6660265E-3,-8.298416E-4,4.0599215E-3,6.4525515E-4,-6.2161585E-4,2.8838482E-4],"categories":[],"categories_nodes":[],"categories_segments":[],"categories_sizes":[],"default_left":[0,0,0,0,0,0,0,0,0,0,0,0,0,0,0,0,0,0,0,0,0,0,0,0,0,0,0,0,0,0,0,0,0,0,0,0,0,0,0,0,0,0,0,0,0,0,0,0,1,0,0,0,0,0,0,0,0,0,0,0,0,0,0,0,0,0,0,0,0,0,0,0,0,0,0,0,0,0,0,0,0,0,0,0,0,0,0,0,0,0,0,0,0,0,0],"id":16,"left_children":[1,3,5,7,9,11,13,15,17,19,21,23,25,27,29,31,33,-1,35,37,39,41,-1,43,45,-1,-1,47,49,51,53,55,57,59,61,-1,63,65,67,-1,69,-1,71,73,75,-1,77,79,81,83,85,87,89,91,93,-1,-1,-1,-1,-1,-1,-1,-1,-1,-1,-1,-1,-1,-1,-1,-1,-1,-1,-1,-1,-1,-1,-1,-1,-1,-1,-1,-1,-1,-1,-1,-1,-1,-1,-1,-1,-1,-1,-1,-1],"loss_changes":[5.5888817E-2,1.9507354E-1,1.4257938E-1,1.6052693E-1,1.6147096E-1,1.8153685E-1,9.7259365E-2,1.2612459E-1,1.935301E-1,6.968081E-2,8.1139885E-2,4.9149922E-1,1.2588441E-2,1.0072443E-1,2.824543E-1,6.288455E-2,2.7490297E-1,0E0,1.353124E-1,8.369909E-2,9.715104E-2,2.3822013E-2,0E0,1.9518885E-1,8.4904134E-2,0E0,0E0,1.1925044E-1,1.6476664E-1,6.311774E-2,1.4475375E-1,7.9715595E-2,8.3895475E-3,6.996304E-2,4.026222E-2,0E0,1.5437141E-1,5.2321777E-2,7.980682E-2,0E0,1.4797264E-1,0E0,9.884828E-3,1.2985392E-1,2.541873E-1,0E0,1.3219589E-1,1.8934801E-2,1.392938E-1,2.9620454E-1,7.154204E-2,2.1147662E-1,1.7476739E-1,6.8447806E-2,1.5427478E-1,0E0,0E0,0E0,0E0,0E0,0E0,0E0,0E0,0E0,0E0,0E0,0E0,0E0,0E0,0E0,0E0,0E0,0E0,0E0,0E0,0E0,0E0,0E0,0E0,0E0,0E0,0E0,0E0,0E0,0E0,0E0,0E0,0E0,0E0,0E0,0E0,0E0,0E0,0E0,0E0],"parents":[2147483647,0,0,1,1,2,2,3,3,4,4,5,5,6,6,7,7,8,8,9,9,10,10,11,11,12,12,13,13,14,14,15,15,16,16,18,18,19,19,20,20,21,21,23,23,24,24,27,27,28,28,29,29,30,30,31,31,32,32,33,33,34,34,36,36,37,37,38,38,40,40,42,42,43,43,44,44,46,46,47,47,48,48,49,49,50,50,51,51,52,52,53,53,54,54],"right_children":[2,4,6,8,10,12,14,16,18,20,22,24,26,28,30,32,34,-1,36,38,40,42,-1,44,46,-1,-1,48,50,52,54,56,58,60,62,-1,64,66,68,-1,70,-1,72,74,76,-1,78,80,82,84,86,88,90,92,94,-1,-1,-1,-1,-1,-1,-1,-1,-1,-1,-1,-1,-1,-1,-1,-1,-1,-1,-1,-1,-1,-1,-1,-1,-1,-1,-1,-1,-1,-1,-1,-1,-1,-1,-1,-1,-1,-1,-1,-1],"split_conditions":[2E0,3.239E-1,3E0,8.9E-1,4.226E-1,4.605E-1,3.74E0,1.89E-1,9.762E-1,3.981E-1,2.13E0,3.78E-1,4.629E-1,1.25E-1,3.9836E0,1.83E-1,2.95E-1,1.29972575E-2,1.13E0,3.273E-1,4.199E-1,1.5E0,-2.161284E-2,3.504E-1,1.62E0,-2.3486486E-2,-7.044227E-3,5E0,4E0,3.5E0,3.75E0,1.2E-1,5E-1,2.631E-1,8.8E-1,1.5972421E-3,1.4309E0,6.3E-1,3.504E-1,2.1712368E-2,1.63E0,-8.805218E-3,1.88E0,2.37E0,1.13E0,2.3086883E-2,1.0164E0,1.12E0,8E0,2.1717E0,1.4533E0,4E0,4E0,4E0,3.9292E0,-9.7581215E-4,-4.940693E-3,5.778394E-3,1.3734665E-3,-1.0265813E-2,-4.354759E-3,-4.5011635E-3,6.924419E-3,-3.1759252E-3,-3.0086766E-4,2.0570487E-3,1.3742424E-2,-2.9236055E-3,5.284154E-3,-2.1170711E-2,1.2157711E-2,4.2808126E-3,-4.2049373E-3,1.4914216E-3,1.0275724E-4,-1.865632E-2,1.1038642E-3,-1.0957473E-2,1.5989719E-2,-7.874622E-4,-1.5853273E-3,6.221714E-5,-7.50944E-4,2.311915E-3,-8.5811625E-4,5.1894796E-4,4.672134E-5,1.008193E-2,-2.8754852E-3,-6.6660265E-3,-8.298416E-4,4.0599215E-3,6.4525515E-4,-6.2161585E-4,2.8838482E-4],"split_indices":[5,2,5,3,2,2,4,2,3,2,0,2,2,2,4,2,2,0,0,2,2,0,0,2,0,0,0,5,5,0,0,0,0,2,0,0,3,0,2,0,0,0,0,4,0,0,3,0,5,3,4,5,5,5,3,0,0,0,0,0,0,0,0,0,0,0,0,0,0,0,0,0,0,0,0,0,0,0,0,0,0,0,0,0,0,0,0,0,0,0,0,0,0,0,0],"split_type":[0,0,0,0,0,0,0,0,0,0,0,0,0,0,0,0,0,0,0,0,0,0,0,0,0,0,0,0,0,0,0,0,0,0,0,0,0,0,0,0,0,0,0,0,0,0,0,0,0,0,0,0,0,0,0,0,0,0,0,0,0,0,0,0,0,0,0,0,0,0,0,0,0,0,0,0,0,0,0,0,0,0,0,0,0,0,0,0,0,0,0,0,0,0,0],"sum_hessian":[7.3132E4,2.721E3,7.0411E4,2.636E3,8.5E1,2.761E3,6.765E4,4.69E2,2.167E3,7.6E1,9E0,2.757E3,4E0,5.6673E4,1.0977E4,3.63E2,1.06E2,1E1,2.157E3,6.7E1,9E0,7E0,2E0,2.741E3,1.6E1,2E0,2E0,1.6342E4,4.0331E4,1.556E3,9.421E3,3.44E2,1.9E1,8.6E1,2E1,3.19E2,1.838E3,1.8E1,4.9E1,5E0,4E0,2E0,5E0,2.716E3,2.5E1,1E1,6E0,1.614E3,1.4728E4,1.309E3,3.9022E4,4.59E2,1.097E3,1.655E3,7.766E3,2.83E2,6.1E1,1.1E1,8E0,4.8E1,3.8E1,3E0,1.7E1,2.1E2,1.628E3,6E0,1.2E1,1.8E1,3.1E1,1E0,3E0,4E0,1E0,1.232E3,1.484E3,1.1E1,1.4E1,2E0,4E0,1.219E3,3.95E2,1.2182E4,2.546E3,8.62E2,4.47E2,3.526E3,3.5496E4,1.2E1,4.47E2,5.3E1,1.044E3,6E1,1.595E3,4.666E3,3.1E3],"tree_param":{"num_deleted":"0","num_feature":"6","num_nodes":"95","size_leaf_vector":"1"}},{"base_weights":[3.1375146E-6,2.5583531E-5,-3.280582E-2,6.1368005E-6,3.8417995E-2,-1.6400218E-3,-5.9293717E-2,-2.759386E-3,2.5793465E-4,4.7821634E-2,-1.5005655E-2,-5.3390656E-2,3.9138336E-2,-7.392358E-2,8.23864E-3,-1.8720188E-3,-1.3426548E-2,4.234501E-3,-2.313116E-4,1.2744079E-2,6.956444E-2,-1.7975295E-2,-7.9907574E-2,6.299215E-2,-6.932303E-2,-1.097652E-2,-5.388711E-2,-6.6766837E-3,1.3316452E-3,-1.8963024E-2,2.3824409E-2,3.192727E-3,6.580109E-2,-1.1254333E-2,4.6182282E-5,6.903581E-2,-1.5931714E-2,1.2581748E-2,1.0804617E-1,-6.817386E-2,5.4947897E-3,-2.3792759E-3,-8.637199E-3,4.8491484E-3,1.2032696E-1,-8.719255E-3,-1.6792E-3,9.551445E-3,-6.829393E-2,-2.4882398E-4,-2.6981453E-3,1.7717144E-3,-6.531055E-5,-1.6246102E-3,-2.894678E-3,9.549032E-3,-2.8596094E-3,2.3664115E-4,2.1222974E-3,8.733877E-3,1.7725052E-3,1.550746E-3,-1.5748339E-3,-1.1192426E-2,6.9290013E-6,6.239623E-4,9.9653965E-3,1.2287936E-2,-1.3326805E-3,2.7009845E-4,1.1659985E-2,-2.6112965E-3,-9.717829E-3,3.960449E-3,-1.0184144E-2,1.4160986E-2,6.9562346E-4,-1.2040197E-2,-5.3319396E-3],"categories":[],"categories_nodes":[],"categories_segments":[],"categories_sizes":[],"default_left":[0,0,0,0,1,0,1,1,0,0,0,0,0,0,0,0,0,0,0,0,0,0,0,0,0,0,0,0,0,0,0,1,1,0,0,0,0,0,0,0,0,0,0,0,0,0,0,0,0,0,0,0,0,0,0,0,0,0,0,0,0,0,0,0,0,0,0,0,0,0,0,0,0,0,0,0,0,0,0],"id":17,"left_children":[1,3,5,7,9,11,13,15,17,19,-1,21,23,25,-1,27,29,31,33,35,37,39,41,43,45,-1,47,49,51,53,55,57,59,61,63,65,-1,67,69,71,-1,-1,-1,73,75,-1,-1,-1,77,-1,-1,-1,-1,-1,-1,-1,-1,-1,-1,-1,-1,-1,-1,-1,-1,-1,-1,-1,-1,-1,-1,-1,-1,-1,-1,-1,-1,-1,-1],"loss_changes":[5.3858202E-2,5.456477E-2,4.117858E-2,5.0867885E-2,7.275278E-2,5.2736968E-2,6.205485E-2,5.7677735E-2,1.302594E-1,2.6570104E-2,0E0,8.8938065E-3,4.058785E-2,1.2038559E-2,0E0,8.665344E-2,9.697163E-2,4.702457E-1,1.8236436E-1,1.5628296E-1,4.6882033E-2,2.5709849E-2,1.21466815E-4,3.941993E-2,1.3519749E-3,0E0,4.526629E-2,1.9145505E-1,1.09867945E-1,1.0596752E-2,2.3189321E-1,1.07428804E-1,1.24776304E-1,1.7631607E-1,1.5047961E-1,2.2450622E-2,0E0,3.0214103E-2,1.1399224E-2,2.3421962E-3,0E0,0E0,0E0,2.9989848E-2,1.3492078E-2,0E0,0E0,0E0,6.8452284E-3,0E0,0E0,0E0,0E0,0E0,0E0,0E0,0E0,0E0,0E0,0E0,0E0,0E0,0E0,0E0,0E0,0E0,0E0,0E0,0E0,0E0,0E0,0E0,0E0,0E0,0E0,0E0,0E0,0E0,0E0],"parents":[2147483647,0,0,1,1,2,2,3,3,4,4,5,5,6,6,7,7,8,8,9,9,11,11,12,12,13,13,15,15,16,16,17,17,18,18,19,19,20,20,21,21,22,22,23,23,24,24,26,26,27,27,28,28,29,29,30,30,31,31,32,32,33,33,34,34,35,35,37,37,38,38,39,39,43,43,44,44,48,48],"right_children":[2,4,6,8,10,12,14,16,18,20,-1,22,24,26,-1,28,30,32,34,36,38,40,42,44,46,-1,48,50,52,54,56,58,60,62,64,66,-1,68,70,72,-1,-1,-1,74,76,-1,-1,-1,78,-1,-1,-1,-1,-1,-1,-1,-1,-1,-1,-1,-1,-1,-1,-1,-1,-1,-1,-1,-1,-1,-1,-1,-1,-1,-1,-1,-1,-1,-1],"split_conditions":[5.154E-1,4.91E-1,2E0,5E-1,1.2E1,5E0,9E0,1E1,1.4533E0,1.62E0,-1.5005655E-2,4E0,6.105E-1,2.13E0,8.23864E-3,7E0,1.3E-1,3.239E-1,1.7336E0,1.38E0,4.978E-1,1.5E0,1.12E0,5.489E-1,1.13E0,-1.097652E-2,2.25E0,6E0,8E0,1.2E1,3.8E-1,1.1E1,5E0,4E0,1E0,6E0,-1.5931714E-2,1E1,4E0,1.094E-1,5.4947897E-3,-2.3792759E-3,-8.637199E-3,5.345E-1,5.901E-1,-8.719255E-3,-1.6792E-3,9.551445E-3,1.26E0,-2.4882398E-4,-2.6981453E-3,1.7717144E-3,-6.531055E-5,-1.6246102E-3,-2.894678E-3,9.549032E-3,-2.8596094E-3,2.3664115E-4,2.1222974E-3,8.733877E-3,1.7725052E-3,1.550746E-3,-1.5748339E-3,-1.1192426E-2,6.9290013E-6,6.239623E-4,9.9653965E-3,1.2287936E-2,-1.3326805E-3,2.7009845E-4,1.1659985E-2,-2.6112965E-3,-9.717829E-3,3.960449E-3,-1.0184144E-2,1.4160986E-2,6.9562346E-4,-1.2040197E-2,-5.3319396E-3],"split_indices":[2,2,0,0,5,5,5,5,4,0,0,5,2,0,0,5,0,2,4,0,2,0,0,2,0,0,0,5,5,5,0,5,5,5,0,5,0,5,5,3,0,0,0,2,2,0,0,0,3,0,0,0,0,0,0,0,0,0,0,0,0,0,0,0,0,0,0,0,0,0,0,0,0,0,0,0,0,0,0],"split_type":[0,0,0,0,0,0,0,0,0,0,0,0,0,0,0,0,0,0,0,0,0,0,0,0,0,0,0,0,0,0,0,0,0,0,0,0,0,0,0,0,0,0,0,0,0,0,0,0,0,0,0,0,0,0,0,0,0,0,0,0,0,0,0,0,0,0,0,0,0,0,0,0,0,0,0,0,0,0,0],"sum_hessian":[7.3132E4,7.3083E4,4.9E1,7.3047E4,3.6E1,2.3E1,2.6E1,6.095E3,6.6952E4,3.5E1,1E0,1E1,1.3E1,2.4E1,2E0,5.628E3,4.67E2,7.334E3,5.9618E4,1.4E1,2.1E1,5E0,5E0,1.1E1,2E0,7E0,1.7E1,2.251E3,3.377E3,4.07E2,6E1,7.213E3,1.21E2,1.463E3,5.8155E4,1.1E1,3E0,9E0,1.2E1,3E0,2E0,1E0,4E0,6E0,5E0,1E0,1E0,1E0,1.6E1,1.867E3,3.84E2,3.64E2,3.013E3,3.22E2,8.5E1,2.5E1,3.5E1,6.898E3,3.15E2,8.3E1,3.8E1,2.1E2,1.253E3,1.1E1,5.8144E4,4E0,7E0,1E0,8E0,1E0,1.1E1,2E0,1E0,5E0,1E0,4E0,1E0,2E0,1.4E1],"tree_param":{"num_deleted":"0","num_feature":"6","num_nodes":"79","size_leaf_vector":"1"}},{"base_weights":[2.4940448E-6,-2.8302206E-6,1.2979127E-1,1.9673276E-5,-3.356651E-2,4.0706457E-3,1.5398047E-2,-4.9409588E-5,1.4417158E-2,1.01005174E-1,-4.7772992E-2,1.7771516E-5,-1.150684E-2,1.0101934E-2,6.993839E-2,1.1760803E-2,1.729688E-3,-3.6109183E-2,-1.9902997E-2,-4.6473026E-5,3.711911E-2,-3.3061404E-2,1.0000553E-2,8.443836E-3,8.422072E-2,-2.3632187E-2,8.888669E-2,-1.07828915E-1,-4.868353E-3,-9.0406225E-5,8.140926E-5,2.4863058E-3,1.7557742E-2,-1.22364E-3,-6.009145E-3,2.4489006E-3,-3.2066077E-3,1.6312165E-3,-5.8484415E-4,-7.156302E-3,1.2211185E-2,-1.8283486E-2,6.1877198E-3,1.1840216E-2,5.1290635E-3,-1.5378612E-2,-3.5401614E-4,-4.578111E-3,6.372527E-3],"categories":[],"categories_nodes":[],"categories_segments":[],"categories_sizes":[],"default_left":[0,0,0,0,0,0,0,0,0,0,1,0,0,1,0,0,0,0,0,0,1,0,0,0,0,0,0,0,0,0,0,0,0,0,0,0,0,0,0,0,0,0,0,0,0,0,0,0,0],"id":18,"left_children":[1,3,5,7,9,-1,-1,11,13,15,17,19,21,23,25,-1,-1,27,-1,29,31,33,35,37,39,41,43,45,47,-1,-1,-1,-1,-1,-1,-1,-1,-1,-1,-1,-1,-1,-1,-1,-1,-1,-1,-1,-1],"loss_changes":[5.053746E-2,5.523651E-2,1.9666553E-4,7.2690494E-2,9.8503076E-2,0E0,0E0,5.5985995E-2,8.29092E-2,4.914727E-3,7.220366E-2,1.723616E-1,1.9688961E-1,3.9230134E-2,4.6425693E-2,0E0,0E0,9.582017E-2,0E0,5.3276327E-2,2.0775367E-1,1.185997E-1,1.3060458E-1,3.5968974E-2,5.0058443E-2,7.937992E-2,1.7230049E-2,6.1762214E-2,8.991439E-2,0E0,0E0,0E0,0E0,0E0,0E0,0E0,0E0,0E0,0E0,0E0,0E0,0E0,0E0,0E0,0E0,0E0,0E0,0E0,0E0],"parents":[2147483647,0,0,1,1,2,2,3,3,4,4,7,7,8,8,9,9,10,10,11,11,12,12,13,13,14,14,17,17,19,19,20,20,21,21,22,22,23,23,24,24,25,25,26,26,27,27,28,28],"right_children":[2,4,6,8,10,-1,-1,12,14,16,18,20,22,24,26,-1,-1,28,-1,30,32,34,36,38,40,42,44,46,48,-1,-1,-1,-1,-1,-1,-1,-1,-1,-1,-1,-1,-1,-1,-1,-1,-1,-1,-1,-1],"split_conditions":[6E0,5.38E0,8E0,5.12E0,4E0,4.0706457E-3,1.5398047E-2,4.62E0,2.95E-1,1.89E-1,1.1E1,4.5E0,8E0,1.2E1,3E0,1.1760803E-2,1.729688E-3,8E0,-1.9902997E-2,1.637E-1,1E1,5E0,5.0238E0,5E0,4.75E0,3.239E-1,3.504E-1,1.89E-1,5.62E0,-9.0406225E-5,8.140926E-5,2.4863058E-3,1.7557742E-2,-1.22364E-3,-6.009145E-3,2.4489006E-3,-3.2066077E-3,1.6312165E-3,-5.8484415E-4,-7.156302E-3,1.2211185E-2,-1.8283486E-2,6.1877198E-3,1.1840216E-2,5.1290635E-3,-1.5378612E-2,-3.5401614E-4,-4.578111E-3,6.372527E-3],"split_indices":[0,0,5,4,5,0,0,0,2,2,5,0,5,5,5,0,0,5,0,2,5,5,4,0,0,2,2,2,0,0,0,0,0,0,0,0,0,0,0,0,0,0,0,0,0,0,0,0,0],"split_type":[0,0,0,0,0,0,0,0,0,0,0,0,0,0,0,0,0,0,0,0,0,0,0,0,0,0,0,0,0,0,0,0,0,0,0,0,0,0,0,0,0,0,0,0,0,0,0,0,0],"sum_hessian":[7.3132E4,7.313E4,2E0,7.3082E4,4.8E1,1E0,1E0,7.2734E4,3.48E2,4E0,4.4E1,7.2311E4,4.23E2,3.24E2,2.4E1,3E0,1E0,4.2E1,2E0,7.2187E4,1.24E2,2.11E2,2.12E2,3.18E2,6E0,4E0,2E1,1.2E1,3E1,3.6156E4,3.6031E4,1.15E2,9E0,1.2E2,9.1E1,1.58E2,5.4E1,2.05E2,1.13E2,1E0,5E0,1E0,3E0,1E1,1E1,8E0,4E0,1.9E1,1.1E1],"tree_param":{"num_deleted":"0","num_feature":"6","num_nodes":"49","size_leaf_vector":"1"}},{"base_weights":[2.5490199E-6,-4.061888E-3,1.5967272E-4,-5.408537E-3,3.7277363E-2,6.422515E-3,-9.602387E-5,-2.038043E-2,-2.1602905E-3,5.102571E-2,-7.231263E-2,6.73821E-3,-1.6899945E-1,4.2358608E-4,-2.4544683E-3,-1.2105324E-2,-4.8340783E-2,1.166731E-2,-2.7650204E-3,3.9552156E-2,1.23943314E-1,-1.4723772E-2,-2.0177871E-2,5.789268E-3,1.594007E-1,-2.1926608E-2,-6.239967E-3,9.426664E-5,7.1296105E-3,-3.030884E-3,4.0179987E-2,-9.981283E-3,-8.629828E-2,-8.58281E-2,7.2848876E-3,1.4234432E-2,-5.721551E-3,5.657172E-2,-2.4355091E-2,1.9869914E-2,9.447682E-3,-7.812661E-3,1.9431608E-2,6.538062E-3,-7.268239E-2,2.0742036E-2,6.116969E-2,3.1632226E-4,-1.048904E-2,1.1402995E-2,-1.9691786E-2,-2.1197721E-2,-2.181836E-3,1.6312052E-1,2.7533758E-2,-1.544501E-3,3.8862438E-3,-2.2938449E-2,4.732327E-3,-6.616836E-3,-1.655063E-2,-2.9132382E-3,6.150608E-3,1.4483802E-3,1.1626772E-3,-2.0840948E-3,-1.036385E-4,9.080303E-3,1.6214809E-3,-7.7429363E-3,1.9836752E-4,-2.0116592E-2,1.1239256E-2,3.7117673E-3,-3.4499355E-3,4.6074306E-4,3.248465E-3,-1.6988588E-2,9.92591E-4,-1.0232863E-2,1.4703475E-2,-1.4216549E-4,1.1182943E-4,4.2724046E-3,-1.3642558E-3,2.7562918E-3,6.547463E-4,-1.7013726E-3,-1.5116425E-2,-2.6540745E-3,3.0343302E-3,-1.4894798E-4,-1.3847606E-3,2.5916935E-3,1.7106958E-2,1.7307386E-3,1.4284258E-2],"categories":[],"categories_nodes":[],"categories_segments":[],"categories_sizes":[],"default_left":[0,0,0,0,0,0,0,0,0,0,0,0,0,0,1,0,0,0,0,0,0,0,0,0,0,0,0,0,1,0,0,0,0,0,0,0,0,0,0,0,0,0,0,0,0,0,0,0,0,0,0,0,1,0,0,0,0,0,0,0,0,0,0,0,0,0,0,0,0,0,0,0,0,0,0,0,0,0,0,0,0,0,0,0,0,0,0,0,0,0,0,0,0,0,0,0,0],"id":19,"left_children":[1,3,5,7,9,11,13,15,17,19,21,23,25,27,29,31,33,-1,35,37,39,41,-1,43,45,-1,-1,47,49,51,53,55,57,59,61,63,65,67,69,-1,71,-1,73,75,77,-1,79,81,83,85,87,89,91,93,95,-1,-1,-1,-1,-1,-1,-1,-1,-1,-1,-1,-1,-1,-1,-1,-1,-1,-1,-1,-1,-1,-1,-1,-1,-1,-1,-1,-1,-1,-1,-1,-1,-1,-1,-1,-1,-1,-1,-1,-1,-1,-1],"loss_changes":[4.67048E-2,1.517339E-1,1.1275751E-1,1.2819959E-1,1.3326436E-1,1.5409791E-1,8.290539E-2,1.0816102E-1,1.5611966E-1,5.951783E-2,7.15871E-2,3.9862293E-1,1.3109922E-2,1.2242995E-1,3.0028293E-1,5.6501012E-2,2.2374782E-1,0E0,1.08541235E-1,7.533962E-2,8.371489E-2,1.8842509E-2,0E0,1.615927E-1,6.7501485E-2,0E0,0E0,1.241911E-1,2.9765862E-1,1.8585007E-1,2.4893036E-1,9.533863E-2,2.0204921E-1,8.9301676E-2,8.867367E-2,3.9689243E-5,1.3024741E-1,7.312702E-2,2.1122254E-2,0E0,1.310175E-1,0E0,7.0034945E-3,1.3595381E-1,2.1046151E-1,0E0,1.13317415E-1,7.214375E-2,1.828228E-1,1.7550272E-1,1.23124674E-1,1.4896235E-1,9.29845E-2,1.1925966E-2,1.7322722E-1,0E0,0E0,0E0,0E0,0E0,0E0,0E0,0E0,0E0,0E0,0E0,0E0,0E0,0E0,0E0,0E0,0E0,0E0,0E0,0E0,0E0,0E0,0E0,0E0,0E0,0E0,0E0,0E0,0E0,0E0,0E0,0E0,0E0,0E0,0E0,0E0,0E0,0E0,0E0,0E0,0E0,0E0],"parents":[2147483647,0,0,1,1,2,2,3,3,4,4,5,5,6,6,7,7,8,8,9,9,10,10,11,11,12,12,13,13,14,14,15,15,16,16,18,18,19,19,20,20,21,21,23,23,24,24,27,27,28,28,29,29,30,30,31,31,32,32,33,33,34,34,35,35,36,36,37,37,38,38,40,40,42,42,43,43,44,44,46,46,47,47,48,48,49,49,50,50,51,51,52,52,53,53,54,54],"right_children":[2,4,6,8,10,12,14,16,18,20,22,24,26,28,30,32,34,-1,36,38,40,42,-1,44,46,-1,-1,48,50,52,54,56,58,60,62,64,66,68,70,-1,72,-1,74,76,78,-1,80,82,84,86,88,90,92,94,96,-1,-1,-1,-1,-1,-1,-1,-1,-1,-1,-1,-1,-1,-1,-1,-1,-1,-1,-1,-1,-1,-1,-1,-1,-1,-1,-1,-1,-1,-1,-1,-1,-1,-1,-1,-1,-1,-1,-1,-1,-1,-1],"split_conditions":[2E0,3.239E-1,3E0,8.9E-1,4.226E-1,4.605E-1,3.7336E0,1.89E-1,9.762E-1,3.981E-1,2.13E0,3.78E-1,4.629E-1,3.5238E0,1.2E1,6.3E-1,1.4533E0,1.166731E-2,1.13E0,3.66E-1,4.199E-1,1.5E0,-2.0177871E-2,3.504E-1,1.62E0,-2.1926608E-2,-6.239967E-3,3.3704E0,7E0,2.9292E0,3.5E0,1.3E-1,8.8E-1,8.8E-1,2.95E-1,1.12E0,2.3704E0,1.5E0,1.38E0,1.9869914E-2,1.63E0,-7.812661E-3,1.88E0,4.37E0,1.13E0,2.0742036E-2,1.0164E0,1.25E-1,5E0,3.25E0,3.134E-1,4.0708E0,1E1,3.38E0,2.266E-1,-1.544501E-3,3.8862438E-3,-2.2938449E-2,4.732327E-3,-6.616836E-3,-1.655063E-2,-2.9132382E-3,6.150608E-3,1.4483802E-3,1.1626772E-3,-2.0840948E-3,-1.036385E-4,9.080303E-3,1.6214809E-3,-7.7429363E-3,1.9836752E-4,-2.0116592E-2,1.1239256E-2,3.7117673E-3,-3.4499355E-3,4.6074306E-4,3.248465E-3,-1.6988588E-2,9.92591E-4,-1.0232863E-2,1.4703475E-2,-1.4216549E-4,1.1182943E-4,4.2724046E-3,-1.3642558E-3,2.7562918E-3,6.547463E-4,-1.7013726E-3,-1.5116425E-2,-2.6540745E-3,3.0343302E-3,-1.4894798E-4,-1.3847606E-3,2.5916935E-3,1.7106958E-2,1.7307386E-3,1.4284258E-2],"split_indices":[5,2,5,3,2,2,4,2,3,2,0,2,2,4,5,0,4,0,0,2,2,0,0,2,0,0,0,4,5,3,0,0,0,0,2,0,4,0,0,0,0,0,0,4,0,0,3,2,5,0,2,4,5,0,2,0,0,0,0,0,0,0,0,0,0,0,0,0,0,0,0,0,0,0,0,0,0,0,0,0,0,0,0,0,0,0,0,0,0,0,0,0,0,0,0,0,0],"split_type":[0,0,0,0,0,0,0,0,0,0,0,0,0,0,0,0,0,0,0,0,0,0,0,0,0,0,0,0,0,0,0,0,0,0,0,0,0,0,0,0,0,0,0,0,0,0,0,0,0,0,0,0,0,0,0,0,0,0,0,0,0,0,0,0,0,0,0,0,0,0,0,0,0,0,0,0,0,0,0,0,0,0,0,0,0,0,0,0,0,0,0,0,0,0,0,0,0],"sum_hessian":[7.3132E4,2.721E3,7.0411E4,2.636E3,8.5E1,2.761E3,6.765E4,4.69E2,2.167E3,7.6E1,9E0,2.757E3,4E0,5.5437E4,1.2213E4,3.63E2,1.06E2,1E1,2.157E3,6.7E1,9E0,7E0,2E0,2.741E3,1.6E1,2E0,2E0,5.2843E4,2.594E3,1.2051E4,1.62E2,3.54E2,9E0,6.3E1,4.3E1,3.19E2,1.838E3,5.3E1,1.4E1,5E0,4E0,2E0,5E0,2.716E3,2.5E1,1E1,6E0,5.1758E4,1.085E3,2.238E3,3.56E2,5.37E2,1.1514E4,1.4E1,1.48E2,3.19E2,3.5E1,4E0,5E0,5.2E1,1.1E1,2.6E1,1.7E1,2.87E2,3.2E1,4.34E2,1.404E3,2.8E1,2.5E1,4E0,1E1,1E0,3E0,4E0,1E0,2.529E3,1.87E2,1.1E1,1.4E1,2E0,4E0,1.6342E4,3.5416E4,6E1,1.025E3,5.16E2,1.722E3,3.5E2,6E0,4.87E2,5E1,1.087E4,6.44E2,1E0,1.3E1,1.37E2,1.1E1],"tree_param":{"num_deleted":"0","num_feature":"6","num_nodes":"97","size_leaf_vector":"1"}},{"base_weights":[1.9079014E-6,6.765499E-5,-9.78552E-3,1.8816805E-5,2.191931E-2,-7.467181E-3,-2.3224363E-2,2.6043275E-5,-8.728009E-2,9.9496976E-2,-1.8396555E-3,1.1885413E-1,-1.0110857E-2,1.4606123E-5,5.9225332E-2,5.359487E-2,-1.7111627E-2,-5.2835427E-2,1.1406362E-1,-1.5318541E-2,3.781206E-2,2.7089292E-2,2.0520112E-2,-2.328423E-3,-4.909206E-2,3.4360146E-5,-4.3345913E-2,-1.306205E-1,1.7920863E-2,-3.5027682E-3,1.1541999E-2,-1.1905539E-2,7.2912215E-3,2.0112133E-1,8.081981E-2,2.2466339E-3,-5.28658E-2,-1.2738491E-2,8.083386E-2,7.910238E-3,-1.1648806E-2,-5.273213E-2,1.9354551E-3,-1.3429296E-1,-2.5322104E-2,-8.546718E-6,5.6895014E-4,-7.105245E-3,3.84329E-3,-1.7224284E-2,3.8745613E-3,1.19169615E-2,2.7376855E-2,-6.678662E-3,1.2617339E-2,-1.5720181E-3,3.1622348E-3,-7.837358E-3,2.0282865E-2,5.031426E-3,9.986062E-3,-8.897355E-3,4.574394E-3,1.3751781E-3,-2.509057E-3,1.08895665E-2,-1.7397782E-2,-3.4865856E-3,1.241647E-2],"categories":[],"categories_nodes":[],"categories_segments":[],"categories_sizes":[],"default_left":[0,0,1,0,0,0,0,0,0,0,0,0,1,0,0,0,0,0,0,0,0,0,0,0,0,0,1,0,0,0,0,0,0,0,0,0,1,0,0,0,0,0,0,0,0,0,0,0,0,0,0,0,0,0,0,0,0,0,0,0,0,0,0,0,0,0,0,0,0],"id":20,"left_children":[1,3,5,7,9,11,-1,13,15,17,19,21,23,25,27,29,-1,31,33,35,37,39,-1,41,43,45,47,49,-1,-1,-1,-1,-1,51,53,55,57,-1,59,-1,-1,61,63,65,67,-1,-1,-1,-1,-1,-1,-1,-1,-1,-1,-1,-1,-1,-1,-1,-1,-1,-1,-1,-1,-1,-1,-1,-1],"loss_changes":[4.7061373E-2,7.7527046E-2,2.4994364E-1,4.5730375E-2,2.987758E-1,1.6283476E-1,0E0,4.907326E-2,8.0033466E-2,9.034756E-2,6.7386836E-2,7.3677406E-2,1.4398578E-1,6.207271E-2,3.4230492E-1,2.0480193E-2,0E0,4.19886E-2,8.503997E-2,6.2114045E-2,2.3772328E-1,5.402188E-2,0E0,8.542342E-2,1.5659192E-1,4.908537E-2,7.750239E-2,4.897014E-2,0E0,0E0,0E0,0E0,0E0,2.0957202E-2,1.8917765E-1,3.480333E-2,2.1156225E-1,0E0,1.0073513E-2,0E0,0E0,1.1470626E-1,1.17545865E-1,1.8301085E-1,9.4209E-2,0E0,0E0,0E0,0E0,0E0,0E0,0E0,0E0,0E0,0E0,0E0,0E0,0E0,0E0,0E0,0E0,0E0,0E0,0E0,0E0,0E0,0E0,0E0,0E0],"parents":[2147483647,0,0,1,1,2,2,3,3,4,4,5,5,7,7,8,8,9,9,10,10,11,11,12,12,13,13,14,14,15,15,17,17,18,18,19,19,20,20,21,21,23,23,24,24,25,25,26,26,27,27,33,33,34,34,35,35,36,36,38,38,41,41,42,42,43,43,44,44],"right_children":[2,4,6,8,10,12,-1,14,16,18,20,22,24,26,28,30,-1,32,34,36,38,40,-1,42,44,46,48,50,-1,-1,-1,-1,-1,52,54,56,58,-1,60,-1,-1,62,64,66,68,-1,-1,-1,-1,-1,-1,-1,-1,-1,-1,-1,-1,-1,-1,-1,-1,-1,-1,-1,-1,-1,-1,-1,-1],"split_conditions":[3.981E-1,3.78E-1,1.2E1,6.12E0,8E0,1.5238E0,-2.3224363E-2,5.62E0,4E0,2E0,2.12E0,6E0,5E0,5.38E0,1.2E1,2E0,-1.7111627E-2,2.62E0,4E0,7.6E-1,1.2E1,4E0,2.0520112E-2,1.64E-2,